num_model/dense/kernel:0
(784, 128)
[[ 6.71371296e-02  5.26713803e-02 -8.08586702e-02  2.42139697e-02
   2.66138911e-02 -3.75431813e-02  4.08779383e-02 -4.49314937e-02
  -4.32390831e-02 -7.81342387e-04 -4.06770110e-02  1.18770599e-02
   7.76624456e-02 -2.10019946e-03  1.58105493e-02  2.12680325e-02
   3.15009654e-02 -1.79296955e-02 -7.12444782e-02 -7.89840370e-02
  -6.11082353e-02  5.50836995e-02  7.01224059e-03  3.64761502e-02
  -2.16443725e-02  2.98634768e-02  6.68788180e-02 -2.75143012e-02
  -7.69584104e-02  5.88881746e-02 -3.48141417e-02 -5.16517311e-02
  -7.13195726e-02  4.84669954e-03  4.07298431e-02  4.46698293e-02
   4.27437350e-02 -6.75853491e-02 -4.21033092e-02 -2.76415274e-02
   6.15152344e-02 -2.05352455e-02 -6.65252060e-02  3.72184739e-02
  -4.35828418e-02 -7.22379312e-02  6.99357167e-02  8.02459940e-02
  -1.77186206e-02  3.24098468e-02 -4.43080664e-02 -2.34812014e-02
   5.37029430e-02 -7.33335763e-02 -6.54901415e-02  7.77404234e-02
  -7.64349028e-02  6.73077032e-02 -1.54465213e-02  4.91533801e-02
  -2.48134769e-02  1.26950145e-02 -4.33600657e-02 -4.97277789e-02
   5.02801687e-03 -4.39443737e-02  3.77883688e-02 -2.00873092e-02
   1.51662156e-02 -7.65714645e-02 -1.15898252e-03 -7.80765712e-02
   6.57823756e-02 -3.24651375e-02 -7.76743516e-02 -5.08887917e-02
  -3.73688079e-02 -4.60867472e-02  3.40920910e-02  2.80482322e-02
  -2.61311308e-02  7.72213712e-02  6.70960620e-02  2.02080011e-02
  -6.53361529e-03 -1.63479969e-02 -6.80782795e-02  2.70028636e-02
  -3.38256657e-02 -2.34605297e-02  1.34123266e-02 -4.70833443e-02
  -8.16505402e-03  5.78398332e-02  1.10296607e-02  1.04970410e-02
   6.58161938e-04 -3.03525440e-02  7.79796019e-02  6.64380938e-03
  -2.16121376e-02 -3.33248787e-02 -1.98042952e-02 -2.80576497e-02
   8.25768709e-03 -7.51087368e-02  2.56116465e-02 -5.51032498e-02
   7.06478208e-03 -4.38807085e-02 -1.97417736e-02  7.40477815e-02
  -2.01555938e-02 -2.88515650e-02  1.93966925e-03 -7.43033960e-02
  -3.60472277e-02  5.83526269e-02 -4.70529646e-02  5.07815927e-03
  -6.75122663e-02 -3.12226899e-02  7.81386867e-02  3.28332782e-02
   4.61466685e-02 -7.32101649e-02 -9.43840295e-03 -6.68301433e-02]
 [-4.69456948e-02  7.63382688e-02 -2.21925937e-02 -7.10654110e-02
  -5.30990846e-02  4.92264703e-02 -6.35403916e-02 -2.26443931e-02
   4.45799455e-02 -1.23573691e-02 -2.70838514e-02 -6.52964637e-02
   5.78375235e-02  5.66705540e-02 -5.31797260e-02  1.42784417e-03
  -6.58997074e-02 -1.73015893e-02  2.80128643e-02  5.25852069e-02
   4.70796153e-02 -7.00418502e-02  7.76508227e-02  6.18655235e-03
  -1.34145319e-02  6.51001111e-02 -3.30418833e-02  1.55582279e-03
  -5.76255992e-02  5.91287985e-02 -1.55609697e-02  2.84431875e-03
  -4.38681580e-02 -4.75532562e-03 -5.58708608e-02 -5.31505831e-02
   6.69529662e-02 -5.11878021e-02  6.28499612e-02 -2.37120613e-02
   7.06146583e-02  5.90595230e-02  1.96034089e-02 -1.61083564e-02
  -3.50687504e-02  1.25849172e-02  1.54185221e-02  6.81525245e-02
   7.86430016e-02  2.75476575e-02 -1.01721808e-02  1.53261796e-02
  -8.06462765e-02 -2.85981558e-02  2.77392641e-02 -7.53623396e-02
   7.98001066e-02 -7.70832598e-03 -6.73448294e-03  1.52090192e-03
  -8.61283392e-03  1.87043697e-02 -4.63606715e-02 -1.54826120e-02
  -2.19350308e-03 -6.17966801e-03  3.16765010e-02  4.37788740e-02
  -3.22882496e-02  1.58936828e-02 -5.38145043e-02 -3.24619673e-02
   9.15434211e-03  2.68847048e-02  5.12512103e-02  1.63954571e-02
   7.47848079e-02  5.70482686e-02 -5.08515090e-02  6.44040629e-02
  -3.37209105e-02  6.45452961e-02 -6.93810657e-02 -2.43676901e-02
  -7.18689337e-02 -2.21595466e-02  6.38661310e-02 -2.11294144e-02
  -7.67197534e-02  5.82758263e-02 -4.33819368e-02  1.12247020e-02
  -4.75575961e-02  6.40629306e-02  5.16071692e-02 -4.69380356e-02
  -6.94425032e-02 -2.44009718e-02 -6.57963976e-02 -5.07812127e-02
   1.28035396e-02 -4.02462333e-02 -2.60508545e-02  1.38226151e-03
   6.87225088e-02 -1.33513585e-02  2.29189396e-02  1.81645229e-02
  -2.34488286e-02  5.92501387e-02  2.63192505e-03  1.14868730e-02
  -5.43095171e-03  2.84204558e-02  5.34191355e-02  7.28534088e-02
  -4.51872237e-02 -2.10154802e-03 -1.44670382e-02  4.35738862e-02
   4.67986092e-02  1.70517787e-02  3.94467115e-02  2.45085508e-02
  -4.95578349e-02  3.23463827e-02 -4.49725688e-02 -1.45531371e-02]
 [ 6.63151070e-02 -5.88169359e-02 -9.70738381e-03 -6.18130788e-02
  -2.36208811e-02  3.61141190e-02 -7.29943439e-02  1.84402466e-02
   5.78657612e-02 -7.42888749e-02 -1.16869286e-02  9.36542451e-03
  -4.60992008e-02 -3.23739015e-02  8.33272189e-03  2.45345011e-02
  -3.52387317e-02  5.25822267e-02  3.98773924e-02  1.03842467e-03
  -5.74931130e-02 -3.85591760e-02  9.23908502e-03 -7.22204149e-03
   3.44633237e-02 -7.77500421e-02 -4.64367904e-02  7.26884976e-02
   1.59756988e-02 -9.41984355e-04  3.30008566e-04  1.05813146e-02
  -1.26744807e-03 -6.84362724e-02  3.53786275e-02  7.74756074e-03
   2.81213075e-02  7.85117820e-02  2.44796202e-02  3.91647145e-02
  -2.30050534e-02  3.70147228e-02  6.39902428e-02 -6.74228445e-02
   4.90654036e-02 -6.90027326e-03  1.94325522e-02 -5.76638319e-02
  -7.30154663e-02  6.36202767e-02 -1.37808174e-02  6.62386492e-02
   3.25476378e-02  2.27472186e-03  6.06953278e-02  1.72643438e-02
  -4.40665521e-02  4.99469563e-02  7.07747415e-02  7.95418695e-02
  -7.87871554e-02  3.98708582e-02 -3.28367241e-02  2.53781378e-02
  -5.66501915e-03 -3.48187238e-02  9.68736410e-03  1.78120434e-02
   7.11605027e-02  3.70106027e-02 -7.72037134e-02  3.28177363e-02
   2.14566737e-02 -6.77524880e-02 -3.16716284e-02  7.65063241e-02
   7.35388622e-02  5.84968701e-02 -9.80885327e-03 -3.77362184e-02
   5.50826862e-02  6.22603670e-02  4.52726260e-02 -5.83722442e-03
   1.57505050e-02 -6.77720383e-02 -5.66817373e-02  3.77077609e-03
   2.47103646e-02 -3.97786312e-02 -5.07493243e-02  4.43532541e-02
   6.48372844e-02  3.41861919e-02  5.40887639e-02 -2.15003230e-02
   2.81880274e-02  5.13498411e-02  5.42186424e-02  5.95820621e-02
  -2.52881907e-02 -3.30582634e-02 -2.36318074e-02  7.77306184e-02
  -5.75238243e-02 -6.96219951e-02  4.14279774e-02 -7.33747482e-02
  -2.29421854e-02  7.34439418e-02  4.15947884e-02  3.26614976e-02
  -3.76630016e-02  1.41568184e-02  3.17350999e-02  5.69129661e-02
   5.12428805e-02 -6.24062605e-02 -7.40981549e-02 -5.17501235e-02
  -1.93715803e-02  6.26304820e-02 -1.18503198e-02 -5.25202677e-02
  -7.51347691e-02 -7.03326464e-02 -3.60840671e-02 -6.87802806e-02]
 [ 4.21543196e-02  5.08807823e-02  2.09194794e-02 -3.56651805e-02
   8.07419047e-02  3.23926955e-02  7.94641152e-02 -6.64722547e-02
   5.48134819e-02  5.69521859e-02  6.30461201e-02  6.48423806e-02
   2.60939822e-02 -2.98496708e-02  5.58080152e-02 -5.66863976e-02
  -4.55774926e-02  7.45239481e-02  4.49795350e-02 -4.04208191e-02
   7.32254907e-02  4.80245426e-02 -4.04948443e-02 -1.57831311e-02
   3.76126468e-02  2.68586949e-02  5.08629456e-02  4.35520187e-02
  -3.96091715e-02 -4.28455323e-03  4.04238924e-02 -2.31751911e-02
  -7.63319805e-02  7.88748264e-04  2.25382447e-02  5.27872965e-02
  -5.74918538e-02  7.46060163e-03  1.04886070e-02  3.82987484e-02
   3.89579535e-02  6.24354184e-03 -4.25076522e-02 -2.27474868e-02
  -4.69382517e-02  2.14415938e-02 -1.84069127e-02 -7.08271787e-02
   1.76637173e-02 -3.73052806e-02 -6.10186979e-02 -1.23196170e-02
   6.99114874e-02 -4.33779135e-02  5.56540489e-03  3.97171825e-03
  -8.67286325e-03  2.36194134e-02  2.30627581e-02  7.32902959e-02
  -5.85234910e-03  5.05857840e-02  3.76822650e-02 -6.85381070e-02
   2.22913176e-02  4.30140644e-02 -4.69872355e-03 -6.67826533e-02
  -4.03200462e-02  5.17910346e-02 -6.48687184e-02 -2.87949815e-02
   4.04921770e-02  3.99952754e-02 -8.08151066e-02 -3.02564129e-02
  -6.80715293e-02  5.14073148e-02  3.93546596e-02  7.46264383e-02
  -2.12053917e-02  5.91305271e-02 -8.10294673e-02 -7.88185820e-02
   8.08715820e-03  8.02359208e-02 -5.91891780e-02  6.38125017e-02
  -7.68316090e-02 -1.23338550e-02 -3.05742025e-03 -4.11614738e-02
   1.49794891e-02 -2.86801308e-02  2.25283876e-02  6.06983975e-02
  -1.37593001e-02  2.24101320e-02  4.67600152e-02 -2.10745297e-02
   4.10908684e-02 -3.49005647e-02  6.71665594e-02  2.02311501e-02
  -5.63042723e-02 -6.24646246e-03 -3.91109176e-02  1.57432705e-02
   7.64919147e-02 -6.69179410e-02  4.26591486e-02  3.40760797e-02
  -1.66320577e-02  4.80437800e-02  1.14109516e-02  2.34263390e-02
  -5.84744550e-02  2.16603428e-02 -6.88758492e-03 -7.80190006e-02
   6.06317446e-02  7.88720176e-02 -1.78930685e-02 -1.10775605e-02
  -5.98498136e-02 -2.28937641e-02  1.28836408e-02 -4.52076085e-02]
 [-6.41329587e-02  3.82149592e-02  3.56438532e-02  3.03265378e-02
   6.66036531e-02 -3.49064432e-02 -4.98044007e-02  3.42118144e-02
  -3.56215723e-02  3.67468148e-02 -4.58539315e-02  6.12869784e-02
  -6.05895445e-02 -1.53359696e-02  4.98910770e-02 -2.57649384e-02
  -3.26958634e-02 -4.25909609e-02 -3.41161452e-02  2.45147943e-02
   7.11892471e-02 -7.78355896e-02 -9.08111036e-03  6.73460215e-03
   3.54768857e-02 -2.11674720e-02 -8.96291435e-03 -5.97209483e-03
   6.19098544e-03 -4.92879115e-02  6.14132360e-02 -2.57497281e-03
   8.12202692e-03  4.55560908e-02 -1.61897168e-02  5.26425317e-02
   2.11042911e-03 -3.40426974e-02  2.89436877e-02  6.22336343e-02
  -1.68395415e-02 -7.63832033e-03 -2.90143527e-02 -5.45415655e-02
  -9.36673582e-03  7.69495890e-02 -1.94626451e-02  1.88945457e-02
  -4.79580462e-03  3.30888182e-02  1.06538162e-02 -5.29894233e-03
   5.64726666e-02  1.11085176e-02 -4.39036079e-02  5.70280030e-02
   5.90253398e-02 -8.02637860e-02  5.46476990e-03  5.62452003e-02
  -6.66960925e-02  7.14729503e-02 -5.23944199e-03  5.47472164e-02
   7.48713091e-02  5.49573824e-02  1.72786564e-02 -1.58748105e-02
   5.93754724e-02  4.12264094e-02  4.44835648e-02 -6.70396611e-02
  -6.48362935e-02 -3.82270031e-02  4.48732153e-02  6.82569519e-02
  -2.34363750e-02 -5.08005731e-02  3.50181609e-02 -3.49193439e-02
  -4.02445309e-02  6.42782673e-02 -7.71530122e-02  3.26936394e-02
   7.15280995e-02 -3.39273065e-02  4.73440960e-02 -1.01710558e-02
   1.67980194e-02 -1.53975636e-02 -4.50098552e-02  6.05366752e-02
   7.76887313e-02  3.99803519e-02  2.44662389e-02  5.73119894e-02
   5.71391508e-02 -7.08960444e-02  8.08581635e-02 -4.52669002e-02
  -2.19649635e-02 -6.59945980e-02 -7.76124299e-02  6.49921596e-04
   6.70927688e-02  3.16598490e-02  5.11383787e-02  2.99012065e-02
  -3.45741957e-03  1.86889023e-02 -4.12951596e-02 -6.71045035e-02
   1.14837959e-02 -1.73048675e-03 -8.15184414e-03  1.08185187e-02
  -3.35066393e-02 -7.02418312e-02  4.24528643e-02 -4.34181206e-02
   1.46499276e-03 -6.44063950e-03  4.72789779e-02  6.91057220e-02
   1.70624107e-02  6.15774095e-03  5.87503091e-02  6.37753680e-02]
 [ 4.11943719e-02  3.86741981e-02 -5.98731749e-02 -4.77122478e-02
   3.25355306e-02 -3.40497494e-03  7.80031160e-02  3.59309465e-02
   9.16036218e-03 -6.52703419e-02 -5.18635586e-02 -7.55727291e-03
  -7.89789855e-03 -4.54011858e-02  4.81053814e-02 -3.29686888e-02
   6.89907447e-02  5.04176542e-02 -3.82276811e-02  7.38631412e-02
   4.32883427e-02  3.73167917e-02  5.73094189e-03 -4.28985767e-02
   2.37599462e-02 -9.37872380e-03  1.02805272e-02  5.44378236e-02
   1.47387460e-02  2.61497870e-02  6.04760423e-02 -4.18736078e-02
  -3.97835039e-02  5.13443425e-02  6.44203946e-02 -3.05490606e-02
  -5.07922471e-03  7.67139867e-02  5.15279695e-02  6.59746155e-02
  -5.37225679e-02  4.36512232e-02  2.17068195e-03  7.22544119e-02
   2.13845447e-02  5.48041239e-02 -3.08871903e-02 -6.38703629e-02
   5.88467792e-02  2.45025381e-02  5.24524599e-03 -3.45402956e-03
  -5.81351668e-03  2.25247890e-02 -1.14570558e-02  6.78142682e-02
   6.51928261e-02  2.63466388e-02 -3.90998386e-02  2.34070197e-02
  -6.32914901e-02 -7.68704936e-02  2.75335014e-02 -3.31403166e-02
   7.80440941e-02 -5.29014468e-02 -3.39511521e-02  4.15852740e-02
   6.84743598e-02 -3.57559957e-02  3.31425369e-02 -4.25164513e-02
   3.13234627e-02 -5.30422851e-02  7.09942505e-02 -4.61558811e-02
  -5.18153682e-02  3.51421386e-02 -2.35066712e-02 -1.29892826e-02
  -5.78194112e-02 -3.19283642e-02 -8.49623978e-03  1.28963068e-02
   4.76485714e-02 -8.38913023e-04  1.74530894e-02 -4.92876209e-02
  -5.55381849e-02 -5.34712300e-02 -7.82265589e-02  2.47861519e-02
   4.05467078e-02  1.80649534e-02 -8.02275464e-02  6.22598305e-02
   4.86671105e-02 -5.43410331e-03 -5.57343513e-02  1.41354874e-02
   6.96268007e-02  7.01038912e-02 -4.77021113e-02 -1.11649930e-03
   7.21911564e-02  7.05625787e-02 -2.64244527e-03  6.48204461e-02
   6.15397915e-02 -5.70842437e-02 -3.37476730e-02  7.74723068e-02
  -5.33377975e-02 -7.11935088e-02  8.01738575e-02 -2.55914927e-02
  -7.02635646e-02 -6.90883175e-02  1.47222504e-02  3.78282666e-02
   5.47671840e-02  3.88171673e-02  1.88928246e-02  2.24129558e-02
  -6.76401556e-02 -4.17248011e-02  3.35680991e-02 -5.41742146e-02]
 [-5.44713289e-02  5.80522045e-02 -4.69734669e-02  7.36648664e-02
  -1.91195458e-02  6.55875131e-02 -6.02860302e-02  9.51867551e-03
  -2.57569700e-02 -2.69923806e-02  7.85773918e-02 -2.42889449e-02
  -4.80083153e-02 -4.58373576e-02  3.15113515e-02 -5.56795895e-02
   2.73327157e-02 -2.50492655e-02  8.07999447e-02 -5.54019883e-02
   5.58207408e-02  1.54760331e-02 -5.74385822e-02 -5.46787158e-02
  -6.03592247e-02  5.83691895e-03 -8.51063430e-03  1.79593787e-02
  -4.44825552e-02  1.86015666e-02  7.10672066e-02 -4.64492291e-03
   3.52805629e-02 -9.53492522e-03  2.50992924e-02  2.70518064e-02
   4.84408215e-02  7.27366284e-02  6.23592511e-02  7.47817084e-02
  -6.18858486e-02  2.01758966e-02 -1.41241699e-02  6.67352006e-02
   5.72725013e-02  7.32208416e-02  1.25827566e-02  7.45642856e-02
  -5.72784990e-02 -7.84530863e-02  4.57075164e-02 -1.98604912e-02
  -1.85859054e-02 -5.86796924e-02  1.14908591e-02 -2.13274360e-03
  -4.42848802e-02  2.90198252e-02  5.13817891e-02  3.33385319e-02
  -3.65037285e-02 -4.53408696e-02  7.85172507e-02  4.79919538e-02
   4.20649201e-02  3.95783857e-02 -4.27301787e-02  1.82137936e-02
   5.21807447e-02  7.11786225e-02 -5.00324965e-02  6.08026758e-02
  -7.92482942e-02  6.73510656e-02 -4.62462083e-02  7.65217468e-02
   6.20512143e-02  6.55529723e-02  5.12636825e-02 -4.01933044e-02
   5.27398959e-02 -5.34574427e-02  1.60944387e-02  2.42407620e-03
  -5.40593266e-02  2.19219178e-03  4.88629267e-02  7.25355074e-02
  -5.87774888e-02 -7.44895488e-02  6.65785596e-02 -7.59642646e-02
  -3.06887589e-02  3.22835669e-02  4.86314371e-02 -3.54304165e-02
  -5.33682741e-02 -7.56747723e-02 -7.37719759e-02  6.45256415e-02
  -4.03336212e-02  9.55431908e-03 -6.41934574e-04  2.90345997e-02
   5.65459207e-02  3.69665176e-02 -3.05218883e-02 -4.39557619e-02
   6.23691306e-02 -9.63275880e-03 -7.07519576e-02  5.53000942e-02
   5.93453869e-02 -4.23444770e-02  1.99250802e-02 -7.52727687e-02
   7.66485706e-02  3.05595398e-02 -6.03957735e-02 -5.42314202e-02
   6.91291466e-02  1.78339556e-02 -1.11082122e-02 -7.35301897e-02
   5.76521680e-02  2.03827843e-02  5.40589020e-02 -2.29684263e-02]
 [-1.10240132e-02  2.66465694e-02 -3.45090218e-02  2.50248238e-02
  -5.05520776e-02  5.46507463e-02  5.21642193e-02 -7.56336153e-02
  -2.58314051e-02  4.74103764e-02  1.34936720e-03  4.84317616e-02
  -7.61261880e-02 -4.34655547e-02 -4.83980402e-02 -1.52599514e-02
   6.18359670e-02 -4.82703112e-02 -1.87609531e-02  4.65096161e-02
  -3.51812206e-02 -1.98602788e-02  8.09708759e-02 -6.75242767e-02
  -4.17750217e-02 -4.94664833e-02  5.69384322e-02  5.93818054e-02
   5.69154397e-02 -6.18298240e-02 -4.06307355e-02  1.91927627e-02
   4.54397872e-02  2.28928700e-02  4.44335863e-02  1.62354857e-02
  -7.25989342e-02 -4.27531712e-02  5.53083643e-02  3.91729921e-03
  -4.17183973e-02  1.17862970e-03 -4.08685170e-02 -3.62705290e-02
   7.73031786e-02  4.25142273e-02  5.52885160e-02  5.97150102e-02
  -2.72944234e-02 -2.08052248e-02  5.76688424e-02 -5.09237796e-02
   5.09502664e-02  8.12916458e-03  4.56391051e-02 -1.64319277e-02
   4.69548628e-02 -1.72708407e-02 -6.32684603e-02  5.77317700e-02
  -5.44646755e-02  4.70978841e-02  3.81940529e-02 -1.79094896e-02
  -6.25167042e-02  2.13577971e-02 -2.24024542e-02  5.53231463e-02
  -3.06330621e-03 -1.57572329e-02  4.13423777e-03 -4.97539081e-02
   6.33363947e-02  6.79417327e-02 -8.07717666e-02 -1.04051083e-02
  -5.37063852e-02 -2.80760191e-02  2.24941373e-02  6.24217466e-02
  -4.85102795e-02  7.95229152e-02  5.69803268e-03  7.16211721e-02
   6.54622987e-02 -1.48414522e-02  7.21137896e-02  4.10073698e-02
   1.01750791e-02  5.25175110e-02 -4.02764007e-02  4.43557426e-02
   3.12221870e-02  5.86494282e-02 -2.00579353e-02  5.83603010e-02
  -2.78680027e-03 -5.21143973e-02  1.01765990e-03  5.40504679e-02
  -1.24049559e-02  5.49604669e-02  1.82599351e-02 -3.50412317e-02
  -4.58021238e-02 -2.98896618e-02  3.83300334e-03 -1.25644058e-02
   3.00162137e-02 -3.27559263e-02 -7.27890134e-02  2.68722922e-02
  -1.86564103e-02  2.09641457e-02 -4.84861247e-02  8.43728334e-03
   4.46359292e-02  3.72534171e-02  3.27762961e-03 -7.02638552e-02
  -8.74112546e-03 -7.65439495e-02 -7.81061724e-02  2.33806223e-02
   5.45292422e-02 -6.45117164e-02  1.63831189e-02  6.82189241e-02]
 [-7.76570439e-02  5.03457561e-02  2.90651768e-02  5.75480610e-03
  -1.33024678e-02 -8.03687572e-02 -1.44794583e-02  6.34014085e-02
  -7.83900917e-03  3.55124474e-02 -4.74846736e-02  1.56640410e-02
   7.94130340e-02  3.93614247e-02  2.60419399e-03  3.19258869e-02
   6.28934726e-02  7.68494233e-02 -6.83050379e-02  7.23664686e-02
  -6.29952848e-02  5.24669513e-02  3.66758779e-02  1.21136084e-02
  -5.80890402e-02 -6.89435527e-02  3.22977230e-02  1.03749558e-02
  -8.86747986e-03  7.57506564e-02  4.19402272e-02  2.73773894e-02
  -4.78240214e-02 -3.55225243e-02 -1.57850981e-02  6.63753077e-02
  -1.43907890e-02  4.47888896e-02 -1.44375488e-02 -5.91375828e-02
   2.88016871e-02 -2.98175327e-02 -7.11726397e-02 -4.10711020e-03
   2.89622173e-02  5.60817793e-02 -3.32243033e-02  5.02802804e-02
  -3.25668566e-02 -5.43610640e-02  2.69998834e-02  2.66851485e-03
  -1.62658319e-02 -2.97713317e-02  3.67732644e-02 -7.16132447e-02
  -8.96320492e-03 -3.64323705e-03  4.66014370e-02  5.02105430e-02
   1.40034035e-02  2.00926885e-02  2.35349983e-02 -8.85972381e-03
  -7.51186386e-02  7.50428662e-02  7.74296597e-02 -2.98560411e-03
   3.51054370e-02 -1.41369924e-02  5.10332510e-02 -5.62987402e-02
  -5.12936227e-02 -3.08637917e-02 -4.40391675e-02  5.99254146e-02
   2.04130039e-02  4.79013100e-02  1.69279724e-02  1.19084492e-02
   3.59931812e-02  4.34569493e-02 -8.09838846e-02  1.88808739e-02
   6.95231557e-03 -5.23267537e-02  3.58439833e-02  2.06796974e-02
  -3.82097736e-02 -4.59133014e-02 -7.61544406e-02 -2.00905986e-02
   3.04525420e-02  7.51760229e-02  5.60589507e-02  5.15294075e-03
   5.98689243e-02  4.35290262e-02  5.42124733e-02  8.08230117e-02
   1.24711543e-02  6.76566288e-02  3.04059163e-02 -6.62951544e-02
  -7.94838741e-02 -7.66995102e-02 -4.13937084e-02 -7.92236179e-02
   7.38637969e-02  1.41363367e-02  1.69218630e-02  2.00117975e-02
   7.20985904e-02 -2.12426595e-02  1.02591813e-02  8.43781978e-03
  -6.59633055e-02 -1.70001388e-03  3.66794914e-02 -3.75695005e-02
  -5.97271696e-02 -6.60995468e-02 -4.69410159e-02  4.10396606e-02
   5.49125150e-02 -2.08623707e-03 -5.42424619e-02 -6.02857582e-02]
 [-7.82641470e-02  1.72048584e-02 -5.42951189e-02 -5.31347468e-02
  -1.85740143e-02  5.01595438e-04  5.36217019e-02 -3.79845500e-04
   5.69027662e-03  7.11667612e-02 -7.35880733e-02  7.52830282e-02
  -3.98588479e-02 -9.89370793e-03 -4.63973209e-02  5.74301258e-02
   7.67917857e-02 -4.75467667e-02  3.79541218e-02  5.59613109e-04
  -3.71343642e-03 -1.72047615e-02 -7.04644695e-02 -5.94836436e-02
  -1.15157440e-02 -1.76141933e-02 -2.46105194e-02 -6.07792512e-02
  -3.22844423e-02  2.20095962e-02 -2.75967419e-02 -5.30451536e-03
   9.73434001e-03 -4.37582023e-02 -4.32107151e-02  3.05890739e-02
   6.39516935e-02  7.33104274e-02 -8.64766538e-03  5.59284538e-03
   6.82225451e-02  4.65192273e-02  4.88013774e-03  1.71925128e-03
   2.75935978e-03 -3.55944037e-02 -2.89993286e-02  3.21279764e-02
   5.70587814e-03 -2.53893696e-02 -7.42729977e-02  6.38990626e-02
  -7.67370611e-02  2.93362588e-02  2.15324461e-02 -7.45194778e-02
  -2.12933235e-02  8.00362229e-03  1.72951296e-02 -3.33381854e-02
  -6.32376224e-03 -6.18969090e-02  3.96082401e-02 -3.26657519e-02
   3.49243730e-03  2.39600763e-02  3.49221453e-02 -6.06924221e-02
   4.05002758e-02 -1.12977028e-02 -4.99002561e-02  5.11184707e-02
  -2.55544595e-02  5.61292246e-02  2.43205428e-02  4.06057313e-02
   3.84180695e-02  2.03622878e-03  5.04994914e-02 -5.28805405e-02
  -6.72591701e-02 -3.43739428e-02 -7.07568824e-02 -7.29910582e-02
   3.18210572e-02 -2.70017982e-02  2.92423293e-02 -8.13747942e-03
   7.37645701e-02 -3.21712159e-02 -6.38564378e-02 -5.83323576e-02
   5.23996353e-03 -3.41235846e-03  2.87390500e-02  6.27936050e-02
  -1.94014013e-02  7.97178522e-02 -9.62309539e-04 -7.80784637e-02
   7.55972639e-02  2.09138691e-02  3.74195501e-02  2.83977166e-02
  -4.72087525e-02 -1.98593326e-02 -1.45248994e-02  4.79470268e-02
   7.58979395e-02 -2.22598352e-02 -7.05187544e-02 -5.69254756e-02
  -4.17626835e-02 -4.84764948e-02 -6.15319386e-02 -1.82789564e-03
  -5.10672480e-03 -4.34646010e-03 -6.40289783e-02 -1.78693980e-03
   3.45982909e-02  2.78695673e-03 -5.64329885e-02  3.37644815e-02
  -4.33246568e-02  7.54172355e-03  7.42860511e-02 -6.07160144e-02]
 [-5.10205626e-02 -3.38089764e-02 -8.08234364e-02  5.78771904e-02
  -3.55324037e-02  3.93617973e-02  8.01772550e-02  2.03322694e-02
   6.16650358e-02 -7.02937916e-02  2.70226225e-02  1.41533539e-02
  -7.69418776e-02 -5.07380143e-02 -2.67975666e-02  1.12323016e-02
   3.14518139e-02 -7.73862749e-03  1.21178851e-02 -4.41786759e-02
  -7.84839690e-02  5.13492748e-02 -2.54370011e-02 -2.48290412e-02
   5.80425933e-02  5.24038002e-02 -2.67755575e-02 -1.96871907e-03
  -5.29026240e-03  3.99105772e-02  4.32748348e-03  2.49914825e-02
  -8.10381919e-02  2.61349231e-02 -5.14228791e-02  1.22223496e-02
   1.84195340e-02  3.73410806e-02  4.95949909e-02 -6.22756779e-03
   7.32369795e-02  7.33832195e-02 -2.84153707e-02 -2.49761119e-02
   6.26927987e-02 -2.08150707e-02 -3.55864950e-02 -4.97981347e-02
   5.00942841e-02 -3.50536853e-02  1.94414854e-02 -3.10746953e-02
   1.54909417e-02 -1.18559599e-03  3.50357369e-02 -1.57850012e-02
   2.08987296e-02 -5.17276525e-02  4.11796719e-02  4.89956662e-02
   2.87623778e-02 -5.85442036e-03  5.35378680e-02 -6.34056628e-02
  -3.91299091e-02  6.30604103e-02  7.33214095e-02 -2.13081166e-02
  -1.31476671e-02  7.79490694e-02  3.67799178e-02 -7.70260543e-02
   8.04725662e-02  6.42695203e-02 -2.34798677e-02 -6.95127174e-02
  -3.03891525e-02  2.70142704e-02 -4.58341092e-03 -1.23408511e-02
  -5.39443642e-02 -6.02421314e-02  1.65654942e-02 -5.36089987e-02
   3.76689956e-02  1.67777389e-03  6.31994754e-03  5.88317215e-03
   4.80961055e-03  4.85406816e-03 -7.72280246e-02 -4.33543213e-02
   7.96387717e-02 -2.41582729e-02  1.62802786e-02 -3.14245261e-02
  -8.63780081e-03 -5.86555600e-02 -1.92907266e-02  2.55250111e-02
   5.04631922e-02 -2.78934836e-04  2.64219940e-04  5.24276420e-02
  -2.10792683e-02  2.39775330e-03 -1.27310231e-02  4.36747968e-02
   4.80601564e-02 -3.41000371e-02 -6.21242523e-02 -6.00587055e-02
  -3.76355425e-02  3.36764529e-02 -4.62654978e-03  7.63304308e-02
  -8.08253139e-02  4.65766117e-02 -7.20712915e-02  1.02315098e-02
   2.22892687e-02  6.40438274e-02  4.28013206e-02  7.53153339e-02
   7.62211606e-02  7.00053200e-02 -5.07496372e-02  2.96587497e-03]
 [-3.29468735e-02  2.40912884e-02  4.17736247e-02 -3.04015875e-02
  -1.43575817e-02 -6.66890144e-02  7.10718110e-02  5.98880723e-02
   3.94547954e-02 -7.77851567e-02  6.25877157e-02 -1.54594034e-02
  -4.19509597e-02  1.28586739e-02 -4.64049727e-03 -5.94238862e-02
  -6.60171285e-02 -5.87588549e-03  4.03967202e-02 -1.04907751e-02
  -3.64567749e-02 -5.38919717e-02 -5.76992035e-02  4.48080823e-02
  -1.59889087e-02 -5.39078712e-02 -5.19733801e-02  7.22314492e-02
   7.90744796e-02 -6.40770495e-02 -5.91970496e-02 -1.29817054e-02
  -4.05834541e-02 -4.24536206e-02 -8.09315369e-02  4.46881279e-02
  -6.84941709e-02 -5.57949021e-02  5.55568859e-02  4.36238572e-02
   3.71279716e-02 -2.95287147e-02  4.19313535e-02  6.57588467e-02
  -2.63954848e-02  5.56556508e-02  4.79051694e-02  3.29902917e-02
  -6.96382225e-02 -8.62929225e-03 -5.64366430e-02 -1.03574246e-03
  -5.51535264e-02 -5.74218929e-02  3.01165208e-02  2.84987167e-02
   7.95770213e-02 -5.81850372e-02 -7.61950836e-02  2.48876214e-03
  -2.61447430e-02  6.88699111e-02 -2.48052776e-02 -5.39546497e-02
   7.00951740e-02 -6.96591884e-02  2.75905132e-02 -5.40316105e-03
  -8.79024714e-03  3.04317325e-02  4.68777865e-03 -3.40512060e-02
   4.03270870e-03 -5.53514957e-02 -5.67371994e-02  6.59897700e-02
   7.93372765e-02  6.74057528e-02 -2.93701403e-02  5.00041619e-02
  -2.67061591e-03 -4.12408262e-03 -1.73093081e-02 -1.75162032e-02
   4.60296646e-02 -3.98258865e-03 -8.00485313e-02  6.77016452e-02
  -2.02333331e-02 -6.59076124e-03 -6.95900619e-03 -4.76472899e-02
   2.39429027e-02  6.94729388e-04 -3.59127671e-03 -7.46643469e-02
  -5.91685623e-02  1.56650096e-02 -1.29373595e-02 -6.08776659e-02
  -2.81649977e-02 -4.91924398e-02 -5.25948778e-02 -1.66160688e-02
   4.25908715e-03 -1.26297250e-02 -1.26940086e-02 -1.80476010e-02
  -1.21690109e-02  6.90548047e-02 -3.76327746e-02 -4.27389890e-03
  -3.94918844e-02 -5.37038296e-02 -2.96191573e-02  4.21438962e-02
  -2.90135406e-02 -3.33004557e-02  8.67413729e-03 -3.37585025e-02
   1.26997530e-02 -6.18696585e-02 -5.65351136e-02  2.45661363e-02
   3.88920307e-06 -5.44704199e-02  2.02110186e-02 -4.12969775e-02]
 [-6.53241649e-02  5.04633263e-02 -3.84670943e-02  3.29759195e-02
   4.61922511e-02 -3.19495983e-02  2.38093194e-02 -4.02881317e-02
  -1.03698120e-01 -4.78304662e-02 -6.97074598e-03  4.46376055e-02
   1.08256817e-01  7.12649152e-02  4.31221835e-02  2.31988076e-02
   5.06779067e-02 -6.86033145e-02  3.66309509e-02 -6.68979213e-02
   3.41057777e-02  5.50491288e-02  7.55192265e-02 -4.33559790e-02
  -4.71771806e-02 -4.26470451e-02  1.09431788e-01  2.17472203e-02
  -1.08783767e-02  7.79110938e-03  1.28934979e-01 -1.24193337e-02
  -5.04455762e-03  5.16001508e-02  9.13690776e-02 -1.07988389e-02
   6.54035285e-02  1.48036266e-02  1.05682060e-01  2.98755150e-02
  -2.69861892e-02  5.66569418e-02  4.44937311e-03  1.18192531e-01
   3.14702392e-02  1.92967821e-02 -1.08554857e-02  4.75124791e-02
  -8.05326104e-02  9.16882511e-03 -6.41778111e-03  4.80546467e-02
   1.24696475e-02  4.89278510e-02  6.85078353e-02 -7.76997581e-02
   9.30870418e-03 -1.26780979e-02  7.62579888e-02  4.33710143e-02
   1.01781279e-01  4.70915958e-02  6.15145378e-02  5.36822453e-02
   5.63574061e-02 -2.36782897e-02  8.55846610e-03  7.40641877e-02
  -7.95074403e-02 -3.94512340e-02  7.10838959e-02  4.98704799e-03
  -9.66546386e-02 -4.78493161e-02 -9.02374834e-02  2.28997264e-02
  -6.43104240e-02 -1.46397978e-01  1.10897096e-02 -3.47154774e-02
  -9.08411667e-02  1.52044773e-01  1.11091092e-01  5.16905487e-02
  -3.31564285e-02  5.15875816e-02 -7.99699724e-02  4.26585302e-02
  -2.33846735e-02 -6.31997660e-02 -9.82315689e-02  9.33375284e-02
   3.02635506e-02 -1.07826382e-01  5.31272814e-02  9.54403654e-02
   7.12680444e-02 -9.13981348e-02  6.12799525e-02  1.00916632e-01
  -2.25080550e-03 -4.04740684e-02  9.54635367e-02  3.64215598e-02
  -6.57642409e-02  4.01267372e-02  8.65172073e-02 -5.86304963e-02
   2.62625348e-02  2.34836563e-02  5.39225601e-02  1.36094550e-02
  -7.91449100e-02  8.76744092e-03 -6.13643378e-02  4.01322581e-02
  -1.16467170e-01  2.53493004e-02  1.19325168e-01 -5.33990189e-02
  -1.02637559e-02  1.54369837e-02  3.64137217e-02 -3.56600359e-02
   6.93376213e-02 -5.96796349e-02  9.40609872e-02  4.21736874e-02]
 [-7.71739036e-02  6.36528060e-02 -7.34813686e-04  2.34182924e-03
  -8.04413110e-02 -6.65821135e-02 -4.19284403e-02 -3.92072760e-02
  -7.55766686e-03  5.70743158e-02  4.80371825e-02  1.81660682e-01
  -3.31485574e-03 -2.51740590e-02  2.52380427e-02 -5.20523526e-02
   8.92713070e-02  2.18094215e-02  1.48139745e-01  5.24305797e-04
   3.86592150e-02  3.98023352e-02 -7.03354850e-02  1.32360421e-02
   3.05721276e-02 -6.40863404e-02 -5.50426356e-03 -1.55121405e-02
   6.65362850e-02 -2.54906043e-02  4.91859019e-02 -1.17391296e-01
  -1.11026421e-01 -5.89839406e-02  1.45265490e-01  3.03257871e-02
   4.73581553e-02 -4.12397739e-03  1.10472232e-01 -3.39332083e-03
   4.74229380e-02  7.64258727e-02  1.34259656e-01  1.51543260e-01
   6.44712150e-03  1.15682334e-01  2.19862303e-03  4.36026081e-02
   5.02871498e-02  6.17636554e-02 -6.87834471e-02  2.75821220e-02
   2.71668844e-03  3.18982005e-02 -1.12129534e-02 -3.36564742e-02
  -4.97659408e-02  1.04915254e-01  1.34795373e-02  6.23505786e-02
   6.91813976e-02  2.83992048e-02 -2.50578579e-03  6.61143064e-02
   1.35231823e-01  6.44008368e-02  6.64816201e-02  1.01672672e-01
  -4.70805019e-02  6.77142963e-02  2.22729668e-02  4.00133394e-02
  -8.70424788e-03 -3.79750654e-02 -1.41085014e-01  1.35148630e-01
  -1.77256614e-02 -3.00553609e-02  6.80800900e-02  9.82553363e-02
  -9.16835070e-02  1.28863797e-01  1.92193463e-02  3.10490206e-02
  -9.33260396e-02 -4.18223515e-02  1.41081233e-02  7.77274743e-02
   9.88833159e-02  5.94411567e-02 -3.11046746e-02 -9.01301391e-03
   7.01955929e-02  3.89840716e-04  6.85500428e-02 -1.16725191e-02
   2.35144868e-02  3.36878300e-02  5.61742485e-02  9.15023237e-02
   4.18519899e-02 -1.33142635e-01  4.03213538e-02 -5.43426275e-02
   3.59951816e-02  1.55248763e-02 -4.35214536e-03  1.90241486e-02
   3.65986191e-02  4.19886857e-02 -3.41263860e-02  3.15311216e-02
   5.66285327e-02 -7.02991486e-02  2.09792834e-02  2.72150338e-02
  -1.50566027e-01 -4.36348170e-02  1.48813874e-01 -3.90656665e-02
  -1.01758011e-01  7.44959116e-02  5.01999706e-02 -1.22640422e-03
   1.73143614e-02 -5.69478124e-02  1.54668167e-01  1.20786548e-01]
 [ 7.88151622e-02 -1.53134167e-02  8.26718926e-04  5.57737276e-02
   5.65534458e-02 -7.69398212e-02  3.38772982e-02 -1.46704391e-02
   2.10721940e-02  7.31668025e-02  2.68410146e-03 -2.01833341e-02
  -7.86754023e-03 -4.95626330e-02  6.38753362e-03  7.78103843e-02
   7.24299327e-02 -3.54102850e-02 -8.43249634e-02 -3.98883447e-02
   2.77489349e-02  1.00223191e-01 -1.98412500e-02 -1.72419250e-02
   9.01298374e-02  1.80423260e-02  9.22651961e-02  5.55213168e-02
  -4.38120775e-02  1.70495361e-02 -2.03748029e-02  1.65308081e-02
   3.43953520e-02 -1.75353419e-02  3.22921723e-02  3.16750258e-02
   1.21910106e-02  1.53542785e-02 -3.57815623e-02  4.30559516e-02
   3.43186185e-02  4.00758646e-02  1.50684372e-01 -1.87025070e-02
  -6.77078515e-02 -7.12760836e-02 -2.95194052e-02 -5.66940755e-03
   7.98248127e-02  1.69872716e-02  2.90665478e-02 -1.07683986e-01
   5.51429167e-02 -1.33870766e-02 -2.20683813e-02  1.93540603e-02
   8.06919262e-02 -2.36987625e-03  9.75841284e-03 -8.34807009e-03
  -7.68178031e-02  4.11391184e-02  3.85354459e-02 -4.42365929e-03
   1.42893046e-01  5.00911288e-02  6.04301691e-02  2.36435309e-02
  -9.33307856e-02 -7.13295937e-02  1.45332143e-02  3.58741954e-02
  -7.39550292e-02  5.47121838e-02 -4.47676405e-02  8.37827772e-02
  -7.02856109e-02  6.04045438e-03  2.60615125e-02 -5.38288727e-02
  -5.80368564e-02  1.10813096e-01  1.21015869e-01 -3.33091766e-02
  -1.26950279e-01 -1.19323425e-01  8.01564101e-03  6.37892559e-02
   7.51880184e-02  1.02311224e-02 -4.84845415e-02  8.76026601e-03
   4.80170026e-02  2.65902579e-02 -7.37055540e-02 -7.82837421e-02
   1.07550763e-01 -2.67123617e-02  3.29965614e-02 -4.18846160e-02
  -4.32355702e-03 -7.63971508e-02  1.55448928e-01 -1.30546615e-01
   1.62374210e-02 -1.28650910e-03  3.97673473e-02 -6.88591227e-02
  -9.84004661e-02 -9.24956799e-02  6.13441691e-02  7.73808584e-02
  -7.43072480e-03  3.01562250e-02  5.53916395e-02 -7.15412498e-02
  -9.09552053e-02  6.72190543e-03 -1.13219514e-01  7.72087052e-02
   1.30713463e-01 -1.27064928e-01 -4.35920386e-03  1.03357412e-01
  -1.21600125e-02 -2.65412927e-02  4.54166569e-02  6.29554540e-02]
 [ 5.43538742e-02  1.20397732e-02  2.13076938e-02 -4.89772037e-02
  -1.96677670e-02 -1.49511322e-02 -6.24491498e-02  5.94760999e-02
  -1.25647988e-02 -2.17613652e-02 -2.21078545e-02 -5.33232652e-02
  -1.60238575e-02  3.05085257e-02  4.47511487e-03  1.17094573e-02
  -4.16555814e-02 -4.20990326e-02  5.54088280e-02 -8.69996771e-02
  -2.68000998e-02  5.34383617e-02 -7.75085464e-02  1.76842920e-02
  -2.32864954e-02  3.88562679e-04  6.00694492e-03 -5.92166930e-02
  -6.11511841e-02 -6.37375712e-02 -7.81003386e-02 -4.00876440e-02
  -8.30758456e-03  4.05261815e-02 -5.05038761e-02  3.86626013e-02
   2.89282873e-02 -5.15038408e-02 -7.45663792e-03  3.92327532e-02
   3.45138386e-02  4.28220555e-02 -2.99978480e-02  2.27825679e-02
  -7.64388591e-03  9.77692008e-03 -4.09887321e-02  1.98677629e-02
  -1.37870461e-02 -5.18270396e-03  3.91295776e-02 -4.81048934e-02
   6.37778118e-02 -3.68437357e-02 -1.74234696e-02  1.15984157e-02
  -8.39890353e-03 -1.62851401e-02  2.87047774e-03  6.05461672e-02
  -1.95645597e-02 -7.41129667e-02 -4.15528826e-02 -4.19335999e-02
   1.16753466e-02 -1.88906502e-03  5.08729788e-03  4.12196070e-02
   1.44111644e-02 -7.48453513e-02 -3.54251936e-02 -5.32247946e-02
   6.68928921e-02 -4.90336530e-02 -5.69458380e-02 -2.79257856e-02
  -7.96694458e-02  4.96192509e-03 -3.17276716e-02  2.28802860e-03
  -5.44644035e-02  5.48766777e-02  2.03468371e-02  2.79351026e-02
  -6.26673326e-02 -1.45576205e-02 -6.66396841e-02  3.99035960e-02
  -3.67032252e-02 -8.05818662e-02  7.24596605e-02 -5.08250743e-02
   6.36264905e-02  6.30838796e-02  1.11358240e-02 -9.30864364e-03
   4.58653942e-02 -3.90662849e-02  1.45229856e-02  3.41770723e-02
   7.87933171e-03  4.54676077e-02  6.10698871e-02 -1.64032597e-02
  -5.90711553e-03  4.27834019e-02  3.44416685e-02  7.71801174e-03
   5.51261529e-02  6.78835660e-02  1.36814415e-02 -4.04267013e-03
  -5.35444915e-03  7.17318431e-02  6.62599728e-02 -2.18887534e-02
  -4.42995951e-02 -2.55084913e-02  9.02888831e-03  2.91743577e-02
  -5.05136773e-02 -8.42404738e-02  6.52614757e-02 -6.18520938e-02
   7.93682188e-02 -2.36090682e-02  5.92525378e-02 -5.53314835e-02]
 [ 5.87620363e-02  4.29600552e-02  5.34043536e-02 -2.70187110e-03
  -1.31075755e-02 -3.54873464e-02 -5.68062551e-02 -2.63681784e-02
   6.70483708e-03 -7.30853528e-02  5.66886440e-02 -2.69193985e-02
   7.38830194e-02 -4.19944711e-02  5.93995824e-02  4.46829423e-02
   3.91764194e-02 -5.64144552e-03 -3.32430415e-02 -1.59354135e-02
   4.79975417e-02 -4.27010357e-02 -8.11068565e-02 -2.11503766e-02
  -2.30012462e-02  7.20464066e-02 -4.47723977e-02 -1.85247213e-02
   3.44508141e-02 -1.39907971e-02 -5.60167693e-02 -6.74540773e-02
  -2.84861475e-02  2.70115435e-02  4.65110466e-02  2.93811783e-02
  -4.07776982e-03  1.49384663e-02 -4.65255529e-02 -2.35011205e-02
  -5.66483587e-02 -8.07459280e-02  3.01826969e-02 -5.45618162e-02
   1.31338388e-02  4.47800234e-02 -7.87822977e-02 -1.67669803e-02
  -4.40596864e-02  2.29854062e-02 -1.08641982e-02 -6.97390735e-02
   5.05790114e-04 -7.97537565e-02 -5.71096353e-02 -4.86211479e-03
   3.62434387e-02  7.91868344e-02 -4.59539704e-02 -1.21247843e-02
  -5.76076359e-02 -4.06541526e-02 -7.52781257e-02 -2.33544782e-02
   4.49949130e-02  4.92844358e-02  9.63275880e-03  6.23814687e-02
  -1.49686560e-02  4.56884578e-02  3.28694433e-02  6.47542402e-02
   1.04635954e-04  2.29841098e-02 -2.18136609e-02 -2.75577530e-02
  -7.61797279e-03  7.39762560e-02  3.83853614e-02  4.91435155e-02
   7.44760707e-02  2.74003595e-02  2.87574232e-02 -6.24275133e-02
   7.63569549e-02 -3.89183089e-02 -2.93670632e-02  2.42529958e-02
   3.47029865e-02  4.54379991e-02  4.63963524e-02  4.39290330e-02
   1.53969452e-02  5.55814877e-02 -6.56956285e-02  1.57182440e-02
  -3.10276449e-02 -6.91438615e-02  4.06430364e-02  4.11005020e-02
  -1.12732649e-02 -1.01546347e-02  5.62375113e-02 -6.16320968e-03
   2.50338539e-02 -3.58524732e-02 -1.36446953e-03  2.75124088e-02
   3.05359513e-02 -8.82126391e-03 -1.49976611e-02 -7.88666531e-02
  -6.61201775e-03  6.70855865e-02 -3.56769972e-02 -1.77577883e-03
   3.33456695e-02 -5.00890613e-02 -3.29352506e-02 -1.48043185e-02
   6.93380162e-02 -1.38904899e-02  5.83683625e-02 -6.17730282e-02
  -7.00492412e-02  6.46735355e-02 -3.17967273e-02  5.19756004e-02]
 [ 2.63353810e-02 -2.46509165e-02  4.24109250e-02  1.39556974e-02
  -2.25484967e-02  7.01377913e-02  7.36112818e-02 -1.36865079e-02
  -3.24424542e-02 -2.36389637e-02 -6.30567595e-02 -3.88094932e-02
  -1.04283541e-03  6.77167252e-02  2.34919339e-02 -5.63292764e-02
  -1.37169436e-02  7.30734840e-02 -6.39721379e-02 -4.28690836e-02
   9.58305597e-03  2.87015364e-02 -6.12929352e-02 -4.40364815e-02
  -7.02896714e-02  3.47853303e-02  4.66020480e-02  8.10612366e-02
   7.24091753e-02  3.43572944e-02  7.93648735e-02 -7.87408352e-02
   4.12095487e-02 -3.44063938e-02  1.24851316e-02 -7.68693537e-03
  -6.13108799e-02 -6.30463958e-02 -5.10522798e-02 -4.25064936e-02
  -7.02554658e-02  9.72109288e-03  2.35195085e-02 -6.93139210e-02
  -1.20375305e-02 -5.56277037e-02  4.12224680e-02 -6.60732239e-02
   7.39866719e-02  6.78250268e-02  5.37600145e-02  2.83068791e-02
   3.43560353e-02  8.30450654e-03 -2.98813730e-03 -5.12445420e-02
   2.34765783e-02 -6.74590319e-02 -2.04105116e-02  5.19232228e-02
   4.65610549e-02  2.22704336e-02 -4.59274575e-02 -5.82796037e-02
   2.54908204e-02  6.85969517e-02  4.44546565e-02 -7.91002959e-02
   1.39078125e-02  3.24948877e-03  8.00231770e-02 -4.68476899e-02
  -6.89706057e-02  4.04233336e-02 -1.28926709e-02 -1.43825337e-02
  -6.14520907e-02 -4.39336598e-02  5.20634577e-02 -6.67337626e-02
   2.47644112e-02  4.52944115e-02 -4.10218537e-02 -6.06092513e-02
  -4.43975069e-02  1.91774443e-02  3.05911824e-02  6.40307590e-02
  -3.88936326e-02 -5.71877211e-02  4.65575829e-02 -5.53121977e-02
  -3.52990702e-02 -5.48983365e-02  7.97813311e-02 -6.69326186e-02
  -4.95062806e-02 -8.99872929e-03 -7.09219202e-02 -6.79405034e-03
  -9.06869769e-03  3.94147784e-02 -1.80101395e-03 -7.90342391e-02
   2.98194662e-02  4.83071283e-02 -7.03579932e-02 -5.48334792e-02
   2.59636566e-02  2.75649056e-02 -2.04909779e-02  3.73431072e-02
  -6.39325976e-02  1.90560967e-02 -8.87523592e-03 -5.92102110e-03
  -7.89081529e-02  7.27360025e-02  2.44306177e-02  7.79681653e-03
   2.73929313e-02  4.43491861e-02  2.47237235e-02  1.01756379e-02
   1.06169954e-02 -1.77467614e-03 -7.52833858e-02  2.53166556e-02]
 [-5.62103093e-02 -2.99282223e-02 -2.82552093e-02 -7.76329488e-02
  -5.19556105e-02 -5.99181354e-02 -2.60634646e-02 -2.98561901e-03
   6.05833009e-02  6.61724284e-02 -3.98955718e-02 -1.15484446e-02
  -5.25878593e-02 -7.08936453e-02 -9.05022770e-03 -5.64179644e-02
  -2.91857868e-02  4.55797687e-02  3.87026295e-02 -9.59237665e-03
  -5.15595227e-02  3.00474465e-02 -5.79051152e-02  5.22138998e-02
   3.15893292e-02  6.94389418e-02  2.78937966e-02  4.56071123e-02
   3.22320536e-02  3.27864066e-02 -7.75999948e-02 -6.21339679e-03
  -2.62787379e-02 -1.57489181e-02  6.70931861e-02 -1.16641074e-03
  -3.95185687e-02  6.70971498e-02 -6.30007386e-02 -5.57332113e-02
  -3.38488333e-02  1.20000690e-02 -4.48264107e-02  6.17684200e-02
   3.49258408e-02 -6.70363307e-02 -7.89102912e-03  5.68338260e-02
  -1.09561309e-02  4.17010337e-02  4.33589518e-03 -4.44847420e-02
   2.08784416e-02 -3.42124887e-02  2.81395763e-03 -7.09434450e-02
  -8.05526227e-02  5.68272248e-02  2.27771699e-02 -6.29647076e-02
   4.55770120e-02 -7.97060728e-02 -3.30590941e-02 -4.00020070e-02
  -7.07578734e-02 -2.58727372e-03  1.98403001e-02 -7.52424076e-02
   2.75140107e-02  1.23249739e-02  5.94631806e-02 -5.28448075e-02
   5.68314716e-02 -1.01048797e-02 -5.45280688e-02 -5.33004925e-02
  -3.56776267e-03  4.76765260e-02 -1.45113617e-02 -5.04934788e-03
  -7.83607811e-02 -1.96430720e-02  4.80322167e-02  2.29835510e-04
  -2.59940401e-02 -1.10052526e-03 -3.89670022e-02 -4.16162349e-02
   6.78897724e-02 -1.78921595e-02 -1.27608404e-02  3.16650122e-02
  -2.60810629e-02  1.09508559e-02 -7.91897550e-02 -6.31579384e-02
  -3.50169800e-02 -2.20211782e-02 -2.11857632e-02 -3.75760756e-02
  -2.60356739e-02  6.43605813e-02 -6.53375238e-02  2.83033401e-03
  -4.40399796e-02  5.93015924e-02 -6.67700022e-02 -2.43907385e-02
   1.24648884e-02  1.67349577e-02  7.49022588e-02  2.57855356e-02
  -6.96978420e-02  8.34415108e-03  6.19037375e-02  1.76059008e-02
  -7.01414645e-02 -4.11147550e-02 -6.83021992e-02  7.08365440e-03
   5.41434810e-02  4.49381992e-02  8.10129941e-03 -2.61331387e-02
   1.94189027e-02  6.06828853e-02 -7.66693950e-02 -2.82932073e-02]
 [ 2.20797583e-02  6.05459139e-02  3.83846313e-02  7.47286305e-02
   7.52427205e-02  4.14084792e-02  6.15398064e-02  7.82017633e-02
  -3.98592539e-02 -6.86853081e-02 -8.77302885e-03 -7.95229971e-02
   2.45420411e-02  7.03925267e-02  6.01849481e-02  2.79125124e-02
   6.83615431e-02  7.14262798e-02 -1.34713128e-02  5.66270426e-02
   2.56349295e-02 -6.92877769e-02 -8.05346221e-02  7.26147369e-02
  -7.93845356e-02  2.87073180e-02 -4.24179435e-02  2.44707987e-02
   6.46057725e-03  4.78644446e-02 -4.28233296e-03  5.65888509e-02
  -5.06486520e-02  2.57783607e-02 -2.30366141e-02 -3.57366353e-02
  -6.57966882e-02  1.74671263e-02 -7.10777044e-02  6.65237829e-02
   7.11836591e-02 -7.43833408e-02 -3.98623087e-02 -3.44854295e-02
  -6.54570684e-02  2.95728594e-02 -5.03649563e-02 -7.97461793e-02
  -4.42143716e-02 -4.40739952e-02 -6.61750883e-03  1.34792030e-02
  -3.21448371e-02  5.56896627e-03  6.99296072e-02 -6.31508827e-02
   8.03471580e-02  7.08379969e-02  1.67634860e-02  1.69334859e-02
   5.04231229e-02 -1.42354071e-02 -6.29689097e-02  4.04012501e-02
  -4.30864841e-03 -7.72352740e-02 -5.79669401e-02 -3.01356651e-02
   4.69582006e-02  5.07397577e-02 -6.78353012e-03 -7.92163312e-02
  -7.65542760e-02 -3.52134593e-02 -1.16876587e-02 -3.40389460e-02
  -7.38717094e-02 -3.74023989e-02 -8.07260722e-02  4.55860123e-02
  -3.87976952e-02 -1.02673769e-02 -4.12298366e-02  5.65206334e-02
  -4.47060876e-02  6.00970313e-02 -7.90647343e-02 -1.48461312e-02
  -1.40993297e-03 -5.15812598e-02 -2.14754529e-02 -3.67661491e-02
  -6.12070411e-03 -5.53490967e-02 -7.93920532e-02  3.98149490e-02
  -4.21517119e-02 -3.53262201e-02 -5.58537841e-02 -6.78381398e-02
   4.92459536e-03  7.67952129e-02 -4.69732732e-02  1.07397959e-02
  -5.67388982e-02  2.24732533e-02  4.00998965e-02  1.93178952e-02
   5.14820293e-02 -3.77877355e-02  6.62389770e-02 -7.68303126e-02
   3.63431647e-02 -2.67995372e-02 -7.75200278e-02  2.34518275e-02
  -1.21900886e-02  6.19073585e-02 -6.62807077e-02  3.62933427e-03
   6.50306568e-02 -4.17272747e-02 -4.69187945e-02 -3.57421674e-02
  -3.93995829e-02 -5.18659949e-02 -3.32898386e-02  7.09961578e-02]
 [ 4.59034070e-02  1.33456290e-02 -1.90682970e-02 -5.02310209e-02
   3.90468538e-02  4.34597582e-03 -1.56538710e-02 -2.53728554e-02
  -4.15590107e-02  5.33454195e-02 -4.27528620e-02  4.08264548e-02
   3.19120660e-02 -3.36138532e-02  4.30463031e-02  5.02403751e-02
   1.75080299e-02  1.75685734e-02 -2.23385990e-02 -1.32111460e-03
   6.89455196e-02 -7.68551826e-02  2.30900943e-04 -6.19862713e-02
   6.01475462e-02 -8.75963271e-03 -5.70331886e-02  6.65516630e-02
  -7.56550059e-02 -6.10453486e-02  4.65419367e-02  2.28459761e-02
  -1.36864930e-03 -4.24307585e-03 -2.10898481e-02  2.88773254e-02
  -3.62453610e-03 -1.45275891e-02  8.11146945e-03 -2.92054564e-02
   9.89712775e-04  8.01190212e-02 -6.94426522e-02  4.90236208e-02
   5.62793389e-02 -4.02770191e-03 -7.06291199e-02 -3.69532108e-02
  -3.49020921e-02 -1.23285502e-02  5.91464415e-02  2.09367275e-02
   1.18450597e-02 -8.08620378e-02  4.11264151e-02  6.39943853e-02
   1.56442970e-02  7.63180330e-02  7.22990409e-02 -2.51952708e-02
   3.23821977e-02 -4.12628464e-02 -1.57314390e-02  5.99133447e-02
   5.17020896e-02  1.80635601e-02  1.59131959e-02 -5.56312613e-02
  -3.86384651e-02 -3.56811173e-02  5.18792644e-02  7.54869208e-02
   2.29868218e-02  6.64112791e-02 -6.00760132e-02 -2.15643644e-03
  -9.14732367e-03  5.43411896e-02  5.84558398e-03  7.38150105e-02
  -6.25821799e-02  3.02174464e-02  1.25145912e-03  5.80162778e-02
   4.40885052e-02  4.31465507e-02  6.39268532e-02  2.24686116e-02
   7.20369071e-03 -2.17985958e-02  3.06963250e-02  6.66113570e-02
   1.21593624e-02  1.07203200e-02  5.53220585e-02 -4.40336764e-03
   1.14993230e-02  5.34803346e-02 -5.68017140e-02 -2.71534920e-03
   3.82691771e-02  6.99499622e-02 -5.59930988e-02  7.13136122e-02
  -6.54213130e-02 -2.15395577e-02  7.78936520e-02 -5.08178622e-02
  -6.95257336e-02  6.48163930e-02  6.20353296e-02  7.45357648e-02
  -7.65404850e-02 -7.21219927e-02  4.62736264e-02  2.87887156e-02
   7.49646351e-02 -4.81328368e-03  5.81367090e-02  8.02928731e-02
   7.46116713e-02 -1.82899684e-02 -3.84776071e-02 -5.48589677e-02
   4.68486771e-02 -4.68356423e-02 -8.50707293e-03 -6.20884933e-02]
 [ 5.69264814e-02  5.52055985e-03 -3.62349302e-03  5.71285114e-02
   5.35158589e-02 -6.49810731e-02  6.73570558e-02  5.83775565e-02
  -6.14758953e-02 -5.03031909e-02 -6.42225742e-02 -1.72592700e-04
   4.19760644e-02 -6.48892224e-02  6.75777867e-02 -3.05817425e-02
  -4.40750793e-02 -1.34869367e-02 -6.40216246e-02  5.57798818e-02
   1.43865123e-02 -2.25907713e-02  6.70425072e-02  3.99693847e-02
   3.39053348e-02 -5.36014549e-02 -1.97195932e-02  3.37828100e-02
   2.44639143e-02  6.95282891e-02  3.90550494e-02  5.04395589e-02
  -7.59403408e-02  6.39185533e-02  2.15517431e-02 -3.25732566e-02
   1.98769867e-02  7.62936100e-02  2.51252279e-02  6.89105168e-02
   6.09058812e-02 -7.62406439e-02  3.66182476e-02 -2.85988301e-02
  -5.27286604e-02 -5.72809130e-02 -2.79126316e-02 -2.80109085e-02
  -1.48645788e-02  7.18467906e-02  1.56589597e-03 -1.43950433e-02
  -1.12488940e-02 -4.36910987e-02  4.77596298e-02  1.53433532e-02
  -5.56199662e-02 -7.87988156e-02  5.27898967e-03 -9.55538452e-03
  -1.65259466e-02  7.60754570e-02 -4.81374748e-02  3.59879956e-02
  -7.03803152e-02  4.46222946e-02  1.02431849e-02  2.93890163e-02
  -6.41775876e-02  2.93081403e-02 -7.65649974e-03  9.36917961e-04
   2.72042081e-02 -6.04393817e-02 -3.55013087e-02  1.20068416e-02
  -5.74704111e-02  1.46237612e-02  4.44754586e-02 -6.35460019e-02
   7.94633701e-02 -1.04919523e-02  7.01007321e-02 -8.08451548e-02
  -6.90328404e-02  8.07279274e-02 -2.87232362e-02 -2.18115151e-02
  -8.08486566e-02 -1.95942633e-02 -2.02766322e-02 -4.26193513e-02
  -6.47572353e-02 -6.65517896e-03  7.35380873e-02  3.73881832e-02
   1.79442018e-02 -8.18460435e-03  2.25379765e-02 -5.03032692e-02
   5.37605360e-02  6.37934282e-02  7.17950687e-02 -6.68502748e-02
  -6.06030226e-02  5.01712635e-02  1.71544999e-02  4.76201698e-02
   5.99018857e-02  1.29825175e-02  1.69952363e-02  4.35893014e-02
   6.99955225e-03  6.89167902e-02 -3.71551961e-02 -2.20598169e-02
  -5.81091158e-02  4.51470241e-02 -5.41014858e-02 -7.53135681e-02
   4.87568006e-02  3.93140838e-02  7.93823823e-02 -4.92018946e-02
  -6.13201410e-02  4.29541320e-02 -5.41978478e-02 -6.37364089e-02]
 [-7.91746154e-02 -4.88484688e-02 -7.13979155e-02  4.47342619e-02
  -5.49534708e-02 -2.43202709e-02  1.67061239e-02 -5.25443628e-02
   5.37547693e-02 -1.35283023e-02 -8.04889649e-02 -6.56447485e-02
   4.41752002e-02  6.67817369e-02  7.15285167e-02 -3.09936106e-02
  -5.12904115e-02  4.24845219e-02 -5.47065586e-02  7.63514712e-02
   4.49953154e-02 -1.21466964e-02  7.78643042e-03  1.24072209e-02
  -7.27605820e-02  6.50072172e-02 -4.17891182e-02  5.87788001e-02
  -4.30312008e-03  1.27398968e-02 -4.55266498e-02  1.67476088e-02
  -4.33733910e-02  6.85757175e-02 -1.31332800e-02 -3.52309197e-02
  -1.70563385e-02 -3.04584987e-02 -6.41947240e-02  4.64234874e-02
  -1.61519274e-02 -3.14355455e-02  5.77114448e-02  7.95868114e-02
  -2.94721685e-02 -3.72007601e-02 -5.25156260e-02 -2.02136487e-02
  -7.78237954e-02  2.78952047e-02  9.88247246e-03 -7.40467533e-02
   2.34771222e-02  3.71462628e-02  1.17252544e-02  3.46894711e-02
  -3.64256799e-02  7.71225914e-02  7.46537670e-02 -2.95631923e-02
   7.54739419e-02  4.58765402e-02  1.96683481e-02 -6.30078539e-02
  -1.50115788e-03 -6.83748350e-02 -1.95577703e-02 -4.59255986e-02
  -5.46046495e-02  9.07196105e-03  2.31432840e-02  4.67497855e-03
  -5.18936291e-02  3.75820324e-02  7.93009177e-02  5.49846143e-03
  -5.32701910e-02 -4.43731397e-02  1.06396005e-02 -2.01100856e-03
   5.76818511e-02  4.76322994e-02  2.52705961e-02  4.06857505e-02
  -3.36984396e-02 -1.50328130e-03  2.51848474e-02  1.41823441e-02
   1.28614977e-02 -2.38385051e-03  8.10303763e-02 -6.29401729e-02
   4.12431210e-02 -5.81529960e-02  1.73861012e-02 -1.48586407e-02
   3.68980169e-02 -2.40134895e-02  5.34324124e-02  9.66066122e-03
  -6.94810599e-02 -6.50969893e-03  6.63815513e-02  7.72849992e-02
   6.15692362e-02  6.30642101e-02  3.67757604e-02 -2.53463797e-02
   2.78679207e-02 -2.83708312e-02  6.39651343e-02  6.27892390e-02
   6.94969520e-02  7.12848529e-02 -9.18135792e-03  6.11857101e-02
  -3.37841064e-02 -5.66011928e-02  7.48733506e-02  3.94929498e-02
   6.14690781e-03 -7.29828402e-02 -2.38997415e-02  5.11009619e-02
   8.04404244e-02  7.26841167e-02 -3.10211070e-02 -1.98230147e-02]
 [ 3.06314379e-02 -3.22180726e-02 -6.32245839e-02  6.64210990e-02
   7.39881471e-02  2.76490301e-02 -6.99612126e-02 -4.79377694e-02
  -7.06578791e-03 -2.44545750e-02  1.59132928e-02  6.29968569e-02
   4.13880199e-02 -2.29978561e-03  5.03661111e-02 -5.85842133e-03
  -1.83357224e-02  7.82144889e-02  7.90869817e-02  4.77597117e-04
   1.48547739e-02  5.76534644e-02 -3.03821899e-02  7.41885826e-02
   1.86693892e-02  4.03996408e-02  2.10928470e-02  6.87688515e-02
  -6.05782121e-03  4.22563404e-03 -2.88298838e-02  2.45499536e-02
  -5.52898049e-02 -1.48194432e-02  4.98184785e-02 -3.95500511e-02
  -2.26787962e-02  1.02299377e-02  4.49062213e-02  1.37336180e-02
   6.40569702e-02 -4.99970689e-02 -5.30408956e-02  3.83832157e-02
   7.13588670e-02  7.20297173e-02 -2.67810374e-03  7.06320927e-02
  -3.13158222e-02  7.68163428e-02  2.62838230e-02 -6.35075942e-02
  -6.42910302e-02 -3.59212011e-02  6.87729493e-02 -2.72632316e-02
  -3.61601077e-02  6.76731393e-02 -4.50445861e-02  1.97658911e-02
   2.91884392e-02 -9.48288292e-03  4.41917703e-02 -5.33991009e-02
   5.89472130e-02 -1.79965869e-02 -7.40718842e-03 -1.01606101e-02
   9.20994580e-03  6.71793595e-02  6.46044388e-02  4.48043868e-02
   3.72536108e-02 -2.21391022e-03  1.30975991e-02 -2.57492959e-02
  -6.07899837e-02 -5.65324649e-02 -3.57953683e-02 -1.97888054e-02
  -4.40309122e-02  2.32482925e-02  7.06763193e-02 -1.98269412e-02
   3.80886346e-02  6.94779232e-02 -1.02415606e-02 -5.79609647e-02
  -5.23462258e-02 -3.79236229e-02  7.59648308e-02  6.08945414e-02
  -2.55277753e-02 -4.03877869e-02  4.09310013e-02 -2.54071429e-02
   4.32314426e-02 -6.84118643e-02 -3.84124368e-02 -8.07742029e-02
  -2.06359588e-02 -1.74701437e-02 -5.94808012e-02  3.81593779e-02
  -2.04118863e-02 -5.37917055e-02  7.23668709e-02 -1.17785111e-02
   3.11942250e-02 -6.85394406e-02  5.97611740e-02  1.60726979e-02
   5.96659109e-02 -5.62151447e-02 -4.13441621e-02  4.16022539e-02
   4.30726409e-02  5.63211516e-02  6.92318454e-02 -7.70396665e-02
  -4.69257757e-02 -7.29490370e-02  7.34290481e-03 -4.83870171e-02
   4.87740412e-02  3.25827375e-02 -1.56429037e-02 -4.29752916e-02]
 [ 8.30502808e-03  4.73044738e-02 -2.56868713e-02  3.94546017e-02
   1.24945566e-02 -5.12607470e-02  2.04434469e-02 -2.24485174e-02
   2.35292017e-02 -3.99583988e-02  3.21131945e-03 -8.38123262e-04
   6.00827560e-02 -5.82038537e-02  2.94108242e-02 -8.06417912e-02
  -5.42250201e-02  4.57395986e-02  4.89354059e-02  2.00792477e-02
   3.40273827e-02 -2.40269676e-02 -2.34626569e-02 -5.48256636e-02
   6.85236230e-02 -1.42565817e-02 -3.29063609e-02  3.53924558e-02
  -7.67652988e-02 -1.97367668e-02  5.07282838e-02 -6.80743381e-02
   2.48994306e-02 -6.44972175e-02  1.13204122e-04  4.52883542e-03
  -1.23777688e-02 -5.18040359e-03  5.94960228e-02  3.07086781e-02
   6.98573217e-02 -4.31946851e-02  2.08261088e-02  2.62325406e-02
   1.35935321e-02  7.31985345e-02 -4.88101579e-02  7.01645389e-02
  -2.21903510e-02  5.85843995e-02 -3.81691232e-02 -4.50936481e-02
   7.96479657e-02 -3.60183939e-02 -2.12813541e-02 -3.27031352e-02
  -5.84897511e-02 -7.18258098e-02 -1.20865554e-02 -5.18359654e-02
  -1.23496130e-02  2.93314084e-02  3.19339335e-03  6.21568933e-02
   1.10188499e-02 -1.89737938e-02  4.27060276e-02  4.94382903e-02
  -5.65793812e-02  3.12932581e-03  1.66814849e-02  1.25900283e-02
  -7.08472356e-02 -1.95571333e-02  6.33707419e-02 -6.55478239e-02
   3.76261771e-04  2.55388916e-02 -5.89498505e-02 -4.47248854e-02
   2.25454792e-02  4.38623354e-02 -4.06150706e-02 -2.82039233e-02
   5.67762181e-02 -4.47345525e-03  2.23881975e-02  6.34179786e-02
   2.60810256e-02  3.81738394e-02  4.93355766e-02  1.33654550e-02
  -5.76307997e-02 -6.20680526e-02 -4.70499881e-02 -2.24632323e-02
  -8.94249231e-03 -4.77716736e-02  6.20841607e-02  2.98090801e-02
  -1.96704157e-02 -3.81748080e-02  4.25578579e-02  6.24972209e-02
  -7.10487813e-02  5.84932938e-02 -9.67982411e-03 -2.24554613e-02
  -1.41098425e-02  2.59250030e-02 -3.93351652e-02 -8.50521028e-04
  -4.58802916e-02  1.13581195e-02 -1.34417638e-02  2.59016603e-02
   4.73262891e-02 -7.85216987e-02 -2.80993022e-02 -1.69769228e-02
  -7.37373829e-02  5.73566556e-03  3.98543775e-02 -2.18864679e-02
  -1.43974572e-02 -1.46371573e-02 -4.43270765e-02 -4.74248827e-03]
 [ 6.47924915e-02 -7.35535547e-02 -6.79535642e-02 -6.24127388e-02
  -8.41200352e-04  4.47042957e-02 -3.13456059e-02 -4.88295369e-02
  -5.98498136e-02 -2.28794701e-02 -7.16998205e-02  5.82984909e-02
  -7.12356269e-02 -7.04321787e-02  4.24107835e-02 -3.55106294e-02
   4.01451662e-02 -2.00282112e-02  3.52449790e-02  3.44950706e-03
  -5.61979115e-02  5.29409572e-02 -2.65145302e-03  7.84185529e-03
  -3.35310847e-02  4.62705567e-02 -5.64677194e-02 -3.01465727e-02
  -6.38406798e-02  2.09308416e-03  7.09426329e-02 -3.05238999e-02
  -2.63288617e-02  4.71749827e-02 -4.21278663e-02  5.84397465e-03
  -4.75636907e-02 -5.29730394e-02  7.73979053e-02  7.51114711e-02
   3.46956924e-02  5.05546853e-02 -9.66116041e-03  2.65328065e-02
   9.77107882e-03 -2.80812420e-02 -2.52596103e-02  6.25137165e-02
  -1.60802007e-02 -2.16838606e-02 -6.20996319e-02 -1.60141438e-02
   1.87792107e-02  6.50708303e-02 -7.41528049e-02 -4.16254774e-02
  -6.93571046e-02 -2.75167003e-02 -6.54344410e-02 -8.03692937e-02
   5.54862246e-02 -7.70414621e-02  7.38978758e-02 -4.13077287e-02
  -5.56517206e-02 -3.05980071e-02  4.18391302e-02 -5.40255457e-02
   2.52074748e-02  6.19798824e-02  3.41382846e-02  7.54322335e-02
   5.48734441e-02 -5.00327833e-02  2.47781724e-03  3.04278657e-02
  -7.96222389e-02  9.75707918e-03  2.86180153e-02 -6.46289438e-02
  -2.77676731e-02 -2.82481499e-02 -8.79496336e-03 -1.90730356e-02
   3.74292433e-02  5.78662083e-02 -2.33053416e-03 -7.20101818e-02
  -4.23449017e-02  8.36814940e-03 -6.75544664e-02 -2.88007408e-02
  -9.53159481e-03  6.12801388e-02 -6.68098032e-02 -4.95284237e-02
   5.71232066e-02  8.94622505e-03  7.74404928e-02  1.54231861e-02
   2.58266106e-02  2.42070854e-02 -6.09244816e-02  2.10150480e-02
  -2.69684196e-02  4.76021096e-02 -6.77956119e-02  2.06132382e-02
  -4.07384895e-02  4.48090062e-02  3.17393988e-03 -6.82364479e-02
  -3.70158665e-02 -5.04459292e-02  6.52344897e-02  6.33107498e-02
   7.53894374e-02  1.87859610e-02  2.45920122e-02  3.92611548e-02
  -7.50653818e-02  4.84612957e-02 -6.83465451e-02  3.09533477e-02
   1.46026611e-02  4.76155356e-02 -4.59052958e-02  1.43698230e-02]
 [-4.38370444e-02 -4.37475257e-02 -6.55752271e-02 -5.10529205e-02
   5.60322627e-02  4.66428772e-02  1.37032196e-02  5.32019064e-02
  -4.21478450e-02 -5.13822287e-02 -4.46210578e-02  6.18689135e-02
  -7.46439993e-02  6.33341298e-02 -2.17711143e-02 -2.76552178e-02
   5.70920855e-03  3.25363204e-02 -3.97215635e-02 -1.69165432e-02
  -2.48148665e-02  7.28792772e-02 -3.86901163e-02  3.63837332e-02
   2.40715593e-03 -6.50891811e-02 -3.64621729e-03 -7.91984051e-02
   2.38685459e-02 -1.79299712e-02  6.72866404e-03 -2.41837613e-02
  -6.41586930e-02  2.03742161e-02 -6.39529154e-02  1.10248774e-02
   3.97550389e-02  7.04212114e-02  3.33279520e-02  2.87305415e-02
  -4.47122008e-02 -5.06626740e-02  5.77250943e-02  4.26508114e-02
   7.48771429e-03 -6.82665184e-02  6.76743463e-02 -6.34227395e-02
  -5.27998433e-02  2.20517516e-02 -6.75775111e-03 -1.93031617e-02
   5.40346280e-02  3.82466912e-02  8.22079182e-03 -7.77599066e-02
   3.49467248e-02 -7.59632811e-02  4.60623279e-02  4.65076640e-02
  -2.20205784e-02  6.38728812e-02  1.53241679e-02  6.83858618e-02
   3.62537801e-04  1.07511133e-03 -2.78620422e-02  6.89397231e-02
   6.05732203e-04 -6.50299489e-02 -2.82810442e-02 -3.57114524e-03
  -6.51385337e-02 -1.06345788e-02  2.68900394e-02  9.56557691e-03
   6.18141145e-03  4.48311865e-03  4.38194051e-02 -6.90631047e-02
   7.44734332e-02 -3.94732207e-02  2.65197530e-02  4.03970703e-02
   5.54775447e-03  5.16911373e-02 -2.70339772e-02  2.39018276e-02
   7.24084303e-02 -7.62708485e-03 -3.68541479e-03 -5.71026355e-02
  -3.43185402e-02  7.92879611e-03  4.37713340e-02  5.14490083e-02
   1.38058439e-02  1.33206248e-02 -5.04568517e-02  4.96592298e-02
   6.73540160e-02 -7.97311366e-02  5.90548590e-02  7.89587423e-02
   3.34565341e-02  2.32325718e-02 -2.84280181e-02 -3.03216241e-02
  -6.22842535e-02 -1.04621798e-03  2.46550143e-02 -3.45915556e-03
  -4.47531976e-02 -9.49691981e-03 -3.42398509e-02 -3.77667509e-02
   3.57621089e-02 -3.64963599e-02 -4.20627743e-02 -3.81371975e-02
  -4.49195243e-02 -6.94962963e-02 -1.38427839e-02 -1.24592781e-02
   2.66692191e-02 -5.84897920e-02  2.05249935e-02 -5.93456477e-02]
 [ 5.26169017e-02  3.63066122e-02  2.74036676e-02 -4.29236963e-02
  -4.19103689e-02  3.26221660e-02 -4.56339195e-02  5.02973273e-02
   9.68813896e-03  7.93026164e-02  4.05721962e-02 -7.99595416e-02
   2.66863704e-02  3.05030718e-02 -7.30713308e-02 -5.31934574e-02
  -6.72827065e-02  3.29784900e-02  5.47645167e-02  4.57051024e-02
  -6.21606447e-02 -1.83604360e-02 -7.50763267e-02 -4.36826870e-02
   3.94522622e-02  7.25002363e-02  6.33798018e-02 -5.11309654e-02
   9.85153019e-03  1.95643827e-02 -1.68098509e-03  2.74486095e-03
  -4.77876514e-03 -7.06286505e-02  7.02149048e-02 -3.06397676e-04
   8.08924958e-02  7.43152872e-02  4.17108163e-02  2.58287787e-03
  -5.36579229e-02  7.40843490e-02 -2.07631253e-02 -8.00778717e-02
   1.47662386e-02  6.38751015e-02  1.39884576e-02 -4.21258062e-03
   2.39382014e-02  5.44287339e-02  1.11103952e-02  3.63044515e-02
  -5.75529858e-02 -2.61610746e-03 -6.74964264e-02 -6.58033043e-02
   1.48849413e-02  2.14719325e-02  5.18381521e-02 -7.19846785e-02
  -4.73340675e-02  1.14436522e-02 -3.66316326e-02 -6.95813149e-02
  -4.40949202e-02 -2.35634856e-02 -9.79685783e-03 -4.08063084e-03
   3.17192823e-03 -6.48062229e-02 -2.56124549e-02  3.58169898e-02
   4.44979146e-02  7.09236339e-02 -6.65187091e-03  8.00376013e-02
   2.04896033e-02  5.28532341e-02  1.97675303e-02 -1.56001672e-02
   7.98381642e-02  7.72875026e-02 -3.57220955e-02 -4.05539572e-03
   5.64308092e-02 -1.65443048e-02  5.45012876e-02 -7.00641274e-02
  -6.93979412e-02 -7.81131387e-02 -6.44977912e-02  2.68750712e-02
   7.06217512e-02 -3.34341601e-02  4.56178710e-02 -5.17044067e-02
  -3.60725224e-02  4.75244224e-03  2.76054442e-03 -3.07620913e-02
   5.55523485e-03  6.55861720e-02  3.69003192e-02  5.33095673e-02
   7.25711659e-02  6.08641878e-02  4.45920154e-02 -3.44533101e-02
  -5.62154874e-02  4.71806526e-03  4.91801724e-02 -1.77656487e-02
  -1.99954920e-02  1.98281184e-02  4.47630808e-02  2.36179829e-02
  -3.83853056e-02 -6.24337047e-03 -5.44633828e-02 -1.50993094e-02
   2.72912160e-02 -5.11049181e-02  1.49115920e-02  4.04941291e-02
  -6.12405464e-02  7.44697377e-02  2.45376900e-02  8.05875883e-02]
 [ 3.83806303e-02 -6.89739883e-02 -4.14727069e-02 -6.50937259e-02
   3.58088836e-02  2.51155198e-02  7.01711103e-02  2.91473269e-02
   1.47468448e-02  6.37354627e-02  4.83806953e-02  5.72382584e-02
  -3.50675881e-02 -4.30908166e-02  6.39098361e-02  3.35339457e-03
   1.86344087e-02  3.57861817e-02  2.77958065e-02 -4.68674898e-02
  -6.75134286e-02  7.55238160e-02  2.57097259e-02 -8.02729353e-02
  -4.04342785e-02 -4.70067561e-03  4.67534885e-02 -3.00412364e-02
   2.63824910e-02  6.57702759e-02 -3.99179049e-02 -1.54858604e-02
  -6.14199117e-02  1.50043517e-02 -7.98346102e-02  3.16798687e-02
   2.86352858e-02  3.52254286e-02 -8.62128288e-03  1.04691833e-03
   8.05726424e-02  2.84346715e-02  7.19546005e-02  4.55869511e-02
   2.74101868e-02 -4.25277837e-02 -3.81247215e-02  1.29665211e-02
   4.90158275e-02  4.37945575e-02 -1.92845613e-03 -5.56127131e-02
  -2.12065876e-03  4.72889468e-02  2.29125172e-02  3.91900316e-02
   1.50524080e-02 -4.88922298e-02 -5.36410213e-02 -4.02477793e-02
   2.68573388e-02  7.90706277e-03 -1.21200457e-02 -1.61366165e-03
   5.88314161e-02  6.28370717e-02  1.54593661e-02  1.71829462e-02
   6.69809356e-02  3.54938284e-02 -4.91678193e-02  7.89331645e-03
  -4.00791280e-02 -7.34619051e-02 -4.99083102e-03 -5.69692031e-02
  -1.68185160e-02 -1.75894424e-02 -3.63393724e-02 -2.10857466e-02
   3.27609181e-02  4.56559137e-02  7.25244507e-02 -1.97554268e-02
   9.79562104e-03 -3.62847596e-02  5.42834923e-02  1.35389566e-02
  -1.93124637e-02 -6.22935370e-02  9.76025313e-03 -1.63891539e-02
  -1.55506060e-02 -1.85822919e-02 -8.01468492e-02 -5.09195626e-02
   2.30911896e-02 -4.50784862e-02  6.22901395e-02 -5.86555898e-03
   4.95719537e-02  6.80110604e-03 -2.31034271e-02 -6.35790676e-02
  -7.79061988e-02  5.26756048e-03 -5.29674664e-02 -1.65652260e-02
  -6.29887879e-02  4.70094904e-02 -5.20465784e-02 -1.49258226e-02
   1.41159743e-02 -1.76621526e-02 -6.83037490e-02  1.08671412e-02
   2.86997408e-02 -3.50750536e-02  3.58862579e-02  2.02981159e-02
  -3.86446714e-02 -1.42493322e-02  1.12586021e-02 -7.21421689e-02
   6.59445450e-02 -4.02730741e-02 -5.90765700e-02 -6.42676055e-02]
 [ 3.47184762e-02 -4.79284115e-02  2.12501585e-02 -6.64629489e-02
   3.54575366e-03  1.00973248e-03 -6.86914176e-02  4.03473303e-02
  -4.77259755e-02 -3.20766717e-02 -5.86076006e-02 -6.31333888e-03
  -7.46668875e-03  3.34604010e-02 -6.00186586e-02  7.03671351e-02
   8.51370394e-03  5.07417247e-02 -6.02877662e-02 -1.75707042e-04
  -3.23174894e-02  5.31698838e-02 -5.46995625e-02  2.59557292e-02
   4.58462313e-02 -6.54001758e-02  9.47901607e-03 -4.94068228e-02
   3.57014984e-02  2.62294263e-02  1.83489174e-02 -6.29382581e-03
   6.01491258e-02  6.41210452e-02  5.91835305e-02  2.35834718e-03
  -9.67989862e-03 -2.27886215e-02 -2.59505883e-02  7.40888789e-02
   3.88904661e-03  6.17488697e-02 -4.13796492e-02  3.39537412e-02
   9.70989466e-03  3.96083295e-03 -1.78066492e-02  3.84667516e-03
   3.76552269e-02  4.24380377e-02  1.31320208e-02  6.32195249e-02
  -6.77296519e-03  7.37769678e-02  6.40173256e-03 -5.95594309e-02
  -6.63274080e-02 -7.87030309e-02  4.26422656e-02  1.10307336e-03
  -5.63587844e-02  2.99801677e-02 -1.76545754e-02  1.12881884e-02
  -7.39200711e-02  5.10282740e-02 -3.04293633e-03  6.92744181e-02
   4.64911759e-03 -4.98970300e-02 -1.43252686e-02 -5.86301684e-02
   8.05044696e-02  3.58955562e-02 -3.66600789e-02 -9.80159640e-03
  -7.73857832e-02 -3.18088941e-02  2.80276760e-02  4.24877331e-02
   2.75721401e-02 -2.96906717e-02  1.61078200e-02  4.48303744e-02
  -3.43742929e-02  5.91259077e-02 -6.82677403e-02  5.30300662e-02
   6.73584566e-02 -5.43706156e-02  4.06273305e-02 -1.99222788e-02
   5.87572381e-02 -7.40573555e-02 -7.15996847e-02  7.67659470e-02
  -5.85605130e-02  6.07908145e-02  1.58051699e-02 -5.45412377e-02
  -9.20452923e-03  7.37637654e-02 -1.23742297e-02 -4.10577431e-02
  -6.87480643e-02 -6.35090098e-02 -4.47529070e-02 -4.14875895e-03
   5.97338006e-02 -6.90666437e-02  4.56512645e-02 -6.18798323e-02
  -6.86961189e-02  2.67750919e-02  7.49844387e-02 -5.48867173e-02
  -2.88377367e-02 -7.54868016e-02 -6.58885688e-02  4.28766757e-03
  -3.78191397e-02 -4.36915234e-02  6.98099509e-02 -1.38461441e-02
   3.00003961e-02  2.93022990e-02  1.19831488e-02  5.06333038e-02]
 [ 5.01018986e-02  4.32120487e-02  4.80995104e-02 -5.44657409e-02
   6.00421950e-02 -2.71332599e-02 -1.19976178e-02  4.17254865e-03
  -4.13927808e-02 -4.13364880e-02 -3.14255320e-02 -1.61799267e-02
  -7.73103088e-02 -2.29997560e-02  1.36431530e-02  5.97695783e-02
  -3.90745699e-03  6.04551211e-02  5.37859872e-02  2.46309415e-02
  -1.61421597e-02  3.63014862e-02 -5.96406125e-02  7.67246112e-02
   1.68148428e-02  2.22552568e-03 -7.83924013e-02  4.54384908e-02
  -6.25358820e-02 -1.10808760e-03 -6.99847639e-02 -5.11417575e-02
   1.54260844e-02  7.34329596e-02 -3.76942530e-02 -1.63946822e-02
  -5.68166971e-02 -7.30044395e-03  3.00882459e-02  7.07927272e-02
   6.95291981e-02 -8.02751034e-02 -5.72050512e-02  4.88427505e-02
  -7.67785832e-02 -2.74686627e-02  4.45254818e-02 -7.63943493e-02
  -6.59408569e-02  6.84156939e-02  6.61085770e-02  3.80340442e-02
   2.87284553e-02  2.65341178e-02 -4.01614532e-02  8.34353268e-04
  -7.52293095e-02 -4.74907644e-02 -5.63092530e-03  8.57035071e-03
   2.67647132e-02  2.08960176e-02 -2.11181790e-02 -6.38402551e-02
   4.73885164e-02 -6.79301322e-02  3.37273106e-02  3.51762101e-02
   2.82834619e-02 -1.96569376e-02  5.94576672e-02  5.76461032e-02
  -3.07425968e-02 -2.20430307e-02  6.20969012e-02 -6.81802481e-02
  -3.97390090e-02  6.47906736e-02  8.03720951e-03 -4.34173048e-02
  -7.91268796e-03 -2.96974219e-02 -4.98217270e-02  4.84492257e-02
  -7.48617128e-02  7.64512792e-02 -4.95313816e-02  2.98219994e-02
  -7.64372572e-02  5.27754650e-02 -8.10583010e-02  7.42656812e-02
   3.37642059e-02  4.54954728e-02 -9.77951288e-03  2.36234367e-02
   6.67363778e-02 -6.02240115e-02 -4.07797769e-02 -2.64969915e-02
   1.97231025e-03 -2.48173624e-02  8.92508775e-03  2.70480737e-02
   5.98360971e-02  4.96393517e-02  7.08984062e-02 -8.54165107e-03
   5.13901785e-02  2.56783068e-02  4.85604256e-03 -2.22641639e-02
   4.23866138e-02  5.06858900e-02 -7.64494985e-02  4.25265878e-02
   7.14991614e-02  7.28706345e-02  1.61162913e-02  4.59809676e-02
   4.81351987e-02 -7.30779096e-02 -5.06164134e-02 -3.72625068e-02
   4.27228138e-02 -5.90142235e-02 -1.78368166e-02 -6.81656897e-02]
 [-6.77278936e-02 -7.43593425e-02  1.89156011e-02 -5.52888736e-02
   5.22463396e-02  7.58200958e-02  4.64404598e-02  1.51322037e-02
   7.36291632e-02 -9.23469663e-03  6.66148588e-02  9.53542441e-03
   1.30507052e-02 -3.71898338e-02  7.53608122e-02 -7.10044056e-03
   1.69137046e-02  4.03277203e-02  4.76496294e-02 -9.06643271e-03
   5.55212051e-03 -6.55989721e-02 -7.09756389e-02 -1.12045109e-02
  -6.35303557e-02  3.45676541e-02  2.04827040e-02  4.46064398e-02
  -1.25430524e-02 -7.58901387e-02  4.92550433e-03  4.98562381e-02
   5.73758259e-02  6.90168068e-02 -1.24590471e-02  5.61389104e-02
  -7.45060593e-02 -7.14957267e-02  9.03516263e-03 -3.90328877e-02
  -1.00660473e-02 -4.60876934e-02 -3.90138589e-02  6.43857494e-02
   5.79643175e-02 -4.14678901e-02 -8.92609358e-03 -2.16447972e-02
  -2.41808221e-02 -5.85380197e-02  6.24507889e-02 -9.09748673e-03
  -7.63873905e-02 -2.39779651e-02  4.51419577e-02 -5.02702221e-02
   4.12671417e-02  1.00706741e-02  7.66738504e-03  2.56784782e-02
  -6.94825277e-02 -4.90128808e-02 -6.95024654e-02 -7.09212050e-02
   1.83208510e-02 -3.59783657e-02 -4.83303964e-02  3.29420045e-02
   1.46086738e-02 -9.56884027e-03  7.59069845e-02 -2.24976353e-02
   2.03846171e-02  4.38934937e-02  2.12953761e-02 -5.34098595e-03
   6.31896481e-02  3.65033001e-02  3.60047817e-02 -1.77880451e-02
  -4.38629575e-02  4.66893837e-02  4.67478856e-02  1.78387761e-03
   1.53320059e-02 -9.57415998e-03  1.21863559e-02 -3.26898880e-02
   6.99394420e-02  8.87297094e-03  6.44802228e-02 -1.21042058e-02
  -4.08773944e-02  4.83540222e-02  1.76260322e-02 -7.00475797e-02
  -7.66050369e-02  4.68771085e-02 -7.62904212e-02 -5.88344559e-02
   1.63070634e-02  1.83383971e-02  3.81956920e-02  2.63634622e-02
  -3.49419117e-02 -6.22509420e-03  4.04756591e-02 -5.43615669e-02
   5.75670674e-02  2.35285610e-02  6.19680434e-03 -7.99837112e-02
   6.89075962e-02 -2.81117596e-02 -6.56035766e-02  4.00855914e-02
  -2.81250626e-02 -4.71267998e-02 -2.50783712e-02 -1.94925815e-02
   4.37628627e-02 -6.82304353e-02  7.56070018e-04 -1.03434995e-02
  -8.23461264e-03  2.58508623e-02 -8.91159475e-03  7.18919858e-02]
 [ 4.46249470e-02 -7.89953768e-03  4.65249382e-02 -1.17509114e-02
  -1.27711669e-02  6.53982684e-02 -8.05955529e-02 -3.24992798e-02
   3.46703269e-02  6.05915859e-02 -5.07599041e-02  5.26677165e-03
   1.33032817e-02  7.22297505e-02 -1.43097900e-02  1.14496052e-03
   1.45475380e-02 -6.93136901e-02 -1.82806014e-03  5.51507995e-02
   3.47850993e-02 -3.69534828e-02  7.88996071e-02 -1.57250986e-02
  -4.53613847e-02 -7.16735199e-02 -2.92852595e-02 -5.86982304e-03
   4.61384282e-03 -3.67388129e-04 -2.55941264e-02 -2.84371115e-02
   3.59585471e-02 -5.69317937e-02 -3.28992456e-02 -1.43378219e-02
  -2.01685075e-02  8.22811052e-02  7.40761533e-02 -2.50415318e-02
  -1.58602521e-02  7.07672015e-02  5.85146062e-02  9.24997870e-03
   6.11833408e-02 -4.72168401e-02  4.50639091e-02  6.26274943e-02
  -5.52002452e-02  7.32530132e-02  4.62966189e-02  6.17506579e-02
   6.86666444e-02 -7.55636916e-02 -4.62334082e-02 -5.40602729e-02
  -5.49159423e-02 -7.01372549e-02  5.90942316e-02 -5.83498590e-02
  -5.66790104e-02  2.21186653e-02  8.07594433e-02  3.28354016e-02
   3.30857150e-02 -4.10400331e-04 -7.17560500e-02  1.60073712e-02
   2.38839984e-02 -2.32433602e-02  7.46159777e-02 -3.69434468e-02
  -6.74981028e-02  2.58131325e-03  3.77636552e-02 -8.07199180e-02
   7.86769390e-03  2.72462852e-02 -1.27194859e-02 -1.93108618e-03
   4.51498330e-02  6.74387813e-02  1.29798325e-02  6.79209307e-02
   5.05806543e-02  2.88197342e-02 -7.83687830e-02  9.36366618e-03
   4.11120616e-02 -3.97704616e-02 -4.84681763e-02  2.70000789e-02
   4.94628027e-02  6.26061037e-02 -8.44881404e-03  4.93558683e-02
  -7.03846961e-02 -5.35843931e-02 -2.23025475e-02  4.65706997e-02
   6.47568330e-02 -7.70583898e-02  3.49854939e-02 -8.83460138e-03
   1.49863968e-02 -3.44564207e-02 -1.63808931e-02  2.10420042e-02
   6.20572735e-03 -7.11850598e-02  3.92413102e-02  4.50302148e-03
   7.31019005e-02  1.20892227e-02  4.32349145e-02  2.96142064e-02
   4.35365662e-02 -3.12990770e-02  3.85020114e-02  6.09225109e-02
   3.81861962e-02  6.81033358e-02  3.08038145e-02  3.73593681e-02
  -6.81469962e-02 -7.58995563e-02 -2.36821026e-02 -5.96030429e-02]
 [ 2.23108288e-02  5.56330159e-02  5.51024601e-02  7.49219507e-02
   1.40023995e-02  2.27502733e-02 -1.29293114e-01 -8.96518677e-02
  -5.25499284e-02  6.10281080e-02 -5.52453063e-02 -7.64380395e-02
   9.30592418e-02 -1.53879253e-02  1.74422022e-02 -3.33980657e-02
   4.79339287e-02  1.02830827e-02 -1.40326843e-02  6.90225586e-02
  -5.51072694e-02  6.37395903e-02  2.82621384e-02 -4.72445488e-02
   7.70564005e-02  4.20723110e-02 -2.36801207e-02  1.20577037e-01
   1.58469956e-02  1.14142150e-03  6.27463385e-02 -4.71059717e-02
  -3.47809754e-02 -1.05683498e-01 -4.42195684e-03 -8.58757179e-03
   1.03332037e-02  1.63336359e-02  2.25153435e-02 -3.61120328e-02
  -5.43806925e-02  1.02762580e-01  2.54564658e-02 -1.75453853e-02
  -2.58682072e-02  5.09852022e-02 -9.53972414e-02  8.76816809e-02
   2.47441866e-02 -5.49007505e-02 -4.39400226e-02 -9.94986892e-02
  -6.66719675e-02  8.84191692e-03 -4.05825488e-02 -5.82521409e-02
  -1.90460589e-02  3.21087353e-02  5.37351938e-03 -1.34951323e-02
   6.10627085e-02  4.53098044e-02 -4.04864550e-04  6.37819106e-03
   3.69575582e-02 -3.23798172e-02 -6.28989786e-02 -4.33036722e-02
   2.50048637e-02 -1.72955170e-02 -6.95145922e-04  2.01106668e-02
  -1.24339499e-01  2.76702419e-02  9.20823961e-03 -5.82433790e-02
  -3.86528149e-02 -7.93473143e-03 -6.98057488e-02  2.98702121e-02
  -3.38938832e-02  9.01809521e-03  8.49434733e-02 -1.10319272e-01
   2.27934197e-02  2.46806517e-02 -2.08631437e-02 -6.59020469e-02
   1.03771664e-01  1.52516998e-02 -2.80021951e-02  1.27341105e-02
  -2.99415663e-02 -7.40001351e-03  2.82699824e-03  1.25788838e-01
  -2.33843531e-02  3.79294716e-02 -1.00174606e-01 -4.65113558e-02
  -4.42039482e-02  2.55274295e-04  1.29208073e-03 -6.67758584e-02
   2.46015750e-02  1.34924427e-01  2.39759814e-02  4.01653349e-04
   4.87324782e-02  3.26423720e-02  4.95719910e-02  7.94335529e-02
   2.96694562e-02 -3.19292359e-02 -6.81345630e-03 -3.76077108e-02
   4.65781018e-02  3.81293222e-02  5.77795357e-02  1.50343701e-02
  -6.03038520e-02  1.26360774e-01 -1.84351895e-02 -3.02540958e-02
   1.83233395e-02 -3.09573114e-02  1.04508370e-01  1.08387753e-01]
 [-4.69937660e-02 -5.60052432e-02 -1.30001204e-02 -2.89470777e-02
  -1.13768913e-01 -8.05710927e-02 -6.87991828e-02 -9.93001536e-02
  -8.86601657e-02 -5.44138812e-02 -7.43811950e-02 -4.32667099e-02
   1.26305297e-01  8.31949562e-02  1.72618225e-01 -6.42005503e-02
   1.18603103e-01  4.05750573e-02  8.40592086e-02  3.11756153e-02
   4.30069268e-02  9.70585421e-02  5.84248640e-02 -1.05696440e-01
   1.01933517e-01 -8.77113268e-02  6.69270381e-02  1.23538025e-01
   1.37877017e-02  1.17884949e-02 -2.65650880e-02 -8.84014517e-02
   2.54936535e-02 -1.71561524e-01  5.79068586e-02  6.14911281e-02
  -1.98710468e-02  6.85716346e-02  1.16288006e-01 -4.00669463e-02
   3.42614613e-02  7.72070438e-02  8.19320849e-05  2.13982537e-01
   3.98022197e-02 -9.11968015e-03 -1.02253303e-01 -8.10762122e-02
  -1.63108736e-01  8.97763819e-02  9.42266732e-03 -5.62519915e-02
  -8.20446236e-04  7.71711096e-02 -1.08786680e-01 -4.59476076e-02
   6.60235668e-03  6.02359325e-02  6.73677102e-02 -7.02308267e-02
  -6.02820888e-04  5.62337376e-02  8.00071433e-02  2.31164917e-01
  -5.60456440e-02 -3.16073000e-03  3.98204960e-02 -1.15113258e-01
  -1.15942955e-01 -6.99565858e-02 -1.09816857e-01  4.63625565e-02
  -9.44194868e-02 -3.27250846e-02 -1.02577068e-01 -6.70021698e-02
  -5.20145930e-02 -1.35807037e-01  4.39038537e-02 -3.74568105e-02
  -8.06193650e-02  2.01376349e-01  3.42812240e-02 -4.22270000e-02
  -4.14494649e-02 -1.69800639e-01  3.25353891e-02 -4.74411249e-02
   7.65860006e-02  8.78347307e-02 -1.36891797e-01  1.99676920e-02
  -3.91761474e-02 -1.91189870e-02 -8.31478164e-02  2.01870054e-01
   1.49303794e-01 -7.73649737e-02 -1.49847761e-01  4.72174445e-03
   6.14268333e-02 -5.87339215e-02  5.67304790e-02  1.66164711e-03
   2.74021714e-03  1.37776524e-01  7.02969208e-02  2.73407605e-02
  -1.60534382e-02 -1.55267626e-01  1.58660300e-02 -2.67986543e-02
   2.52265688e-02  5.80441132e-02 -8.73481855e-02 -4.86888923e-02
  -6.61852136e-02 -1.75621629e-01  5.61256595e-02 -1.91981941e-02
  -8.29221681e-02  1.37190849e-01  1.11402526e-01  1.33236423e-01
   1.74794868e-01 -2.58176364e-02  4.91280034e-02  1.79559201e-01]
 [-4.86841500e-02 -6.20439574e-02 -3.67323756e-02 -2.19762642e-02
  -1.25168622e-01  7.58044422e-02 -2.12808460e-01 -1.95728853e-01
  -8.18051249e-02  1.94242820e-02 -2.74819769e-02  4.15858254e-02
   4.07326967e-02 -2.46921256e-02  1.13744184e-01  3.02358549e-02
   1.96880892e-01 -5.87850958e-02  1.42720819e-01  1.71786219e-01
   3.64270248e-02 -4.92716022e-02  2.14460477e-01 -1.34280756e-01
   6.19124770e-02  1.33423032e-02  4.43826094e-02  1.18481293e-01
  -3.32362838e-02  1.29400762e-02  2.17440678e-03 -2.42951721e-01
  -6.30467832e-02 -1.06264628e-01 -5.22623770e-02 -4.73896004e-02
   5.05333319e-02  1.08357005e-01  2.12747276e-01  2.65008807e-02
   1.42096549e-01  8.81962255e-02 -5.86364679e-02  2.65259802e-01
  -6.20106561e-03  1.09966919e-01 -1.92561805e-01 -3.53937931e-02
  -4.79742028e-02  1.28209472e-01 -4.53096721e-03  3.73726301e-02
  -7.94289783e-02  1.15937022e-02 -8.53343457e-02 -2.99846195e-02
  -6.28714785e-02  9.44274664e-02  8.21189135e-02  2.95115039e-02
   9.87149030e-02  5.96137717e-02  1.59988925e-01  1.89350381e-01
   1.47980805e-02  2.20568143e-02  2.18080059e-02 -1.05778240e-02
  -1.33416027e-01 -4.60320227e-02 -1.92921013e-01  4.14198041e-02
  -2.21149966e-01 -4.31279279e-02 -1.59227550e-01  3.02827191e-02
  -3.79548967e-02 -8.42395052e-02 -6.17817640e-02 -1.25353718e-02
   2.94829328e-02  1.09413549e-01  1.84149817e-01 -9.54205915e-02
  -9.17611197e-02 -1.32363737e-01 -4.14779857e-02 -7.94161782e-02
   1.72613025e-01 -3.96233425e-02 -1.00217454e-01 -4.61643562e-02
  -3.40179838e-02 -5.08211441e-02 -3.18800583e-02  2.62630105e-01
   2.03327730e-01 -1.14459023e-01 -4.21147570e-02 -3.11914198e-02
   1.31664583e-02 -9.52518880e-02  9.02841985e-02 -4.87053655e-02
   1.11829221e-01  1.25191972e-01  3.94662842e-02  4.09394614e-02
   7.08921952e-03 -1.11071654e-01  4.89661470e-02  7.21080527e-02
  -1.01813421e-01  4.77545932e-02 -8.24518278e-02 -6.87234253e-02
  -1.19229473e-01 -7.22391680e-02  9.22147408e-02  4.71070595e-02
  -1.56793758e-01  1.08918279e-01  6.82537183e-02  4.38115969e-02
   1.06986053e-01 -5.86560853e-02  1.77075848e-01  1.19468935e-01]
 [-6.82957321e-02 -6.09736815e-02 -1.04076967e-01  8.27034563e-02
  -2.12501615e-01 -3.09799891e-02 -1.30839169e-01 -1.56861261e-01
  -9.73678455e-02 -6.72880486e-02 -1.53201073e-02 -6.41410723e-02
   1.06368743e-01  3.21123302e-02  1.79809108e-01 -1.75240308e-01
   1.42630190e-01 -8.61111358e-02  9.03619528e-02  3.23911309e-02
   6.94346726e-02  1.02696382e-02  1.40708953e-01 -1.65147573e-01
   3.75098772e-02 -7.04290569e-02  7.02960715e-02  1.57891139e-01
  -1.31392404e-02  1.41361747e-02  4.68900334e-03 -2.53736943e-01
  -1.04345217e-01 -9.28283706e-02 -7.37067088e-02 -4.72272485e-02
   8.96592885e-02  1.88665479e-01  2.17783004e-01  3.90315875e-02
   9.32606384e-02  1.39926344e-01  6.01247363e-02  2.52754360e-01
  -8.39120597e-02  1.88436836e-01 -1.66020766e-01 -5.80545440e-02
  -1.52214393e-01  1.55187204e-01  4.69657872e-03  3.16783078e-02
  -3.52768116e-02  6.09252006e-02 -1.50324076e-01  3.68360505e-02
  -7.16133416e-02  1.88256934e-01  9.88960266e-04 -3.25200595e-02
   1.66624829e-01  1.03330205e-03  9.47631076e-02  2.61406153e-01
   6.22782186e-02 -1.11872321e-02  5.32951728e-02 -1.26415342e-01
  -1.15170777e-01 -6.51381984e-02 -1.42786369e-01  1.19778320e-01
  -1.25950292e-01 -7.32632130e-02 -2.43626729e-01 -9.31346696e-03
  -1.11654662e-01 -1.61845386e-01  3.63458134e-02 -4.67808135e-02
   3.15537006e-02  1.92969337e-01  1.78302512e-01  1.02321915e-02
  -3.95250432e-02 -1.26687691e-01 -1.90419465e-01 -1.94025174e-01
   1.62987441e-01  1.88174751e-02 -6.29620329e-02  4.47102115e-02
   5.37668914e-03 -1.59444138e-02 -1.63235515e-01  2.28626952e-01
   2.16135696e-01 -7.85887465e-02 -5.85008524e-02 -9.44482442e-03
   1.53423590e-03 -1.20626181e-01  6.25044852e-02 -3.21309827e-02
   9.95356366e-02  1.46154687e-01  1.25225335e-01 -2.06429511e-03
  -1.89358834e-02 -8.35273117e-02  1.48762167e-01  1.02445528e-01
   2.74149850e-02  5.32885268e-02 -1.55316755e-01 -1.28023177e-01
  -7.15237632e-02 -1.45695090e-01 -3.96116823e-02 -2.18106788e-02
  -2.71673024e-01  1.69418454e-01 -1.10395392e-02  1.05764546e-01
   1.56123504e-01  8.05527195e-02  2.66848892e-01  1.89486444e-01]
 [-3.10346857e-02 -6.49117306e-02  6.88079670e-02  5.97126782e-02
  -1.36422321e-01 -2.69704219e-02 -9.09184739e-02 -6.78494424e-02
  -6.70001432e-02 -1.29156619e-01  8.02706555e-02  4.50508995e-03
   8.50443766e-02  8.27587917e-02  1.49754301e-01 -2.69547440e-02
   2.21226454e-01  4.41005128e-03  2.23000214e-01  6.83477372e-02
  -3.71108502e-02  1.14946395e-01  1.86719641e-01 -1.85235113e-01
   2.68875482e-03 -9.32491496e-02  2.07164735e-01  5.36073968e-02
  -1.08229049e-01 -2.68977601e-02 -1.38130728e-02 -2.06691071e-01
  -9.94360670e-02 -1.62935838e-01 -3.38066518e-02  1.54397199e-02
   7.69185200e-02  2.40238219e-01  1.72169775e-01  5.31806611e-02
   4.15628068e-02  1.16993353e-01  8.43705460e-02  3.09660405e-01
  -4.92766537e-02  1.65134922e-01 -1.02037266e-01 -4.44195159e-02
  -1.60700113e-01  2.56800294e-01  1.15139723e-01  2.47667003e-02
  -1.36564970e-01  5.55814616e-02 -1.78101569e-01  3.77382785e-02
  -2.17621289e-02  1.16604976e-01  4.94075343e-02 -3.39170769e-02
   2.28833660e-01  3.32982503e-02  1.09515851e-03  1.62704110e-01
  -1.16841844e-03 -7.76840597e-02  3.33600566e-02 -9.01151970e-02
  -1.16478890e-01 -1.42270416e-01 -2.37835839e-01  1.33797705e-01
  -2.29959905e-01  2.44269595e-02 -2.27530241e-01 -1.03550427e-01
  -9.19608101e-02 -4.52730469e-02  6.00232184e-02 -1.86448023e-02
  -3.09714396e-02  1.76792845e-01  1.73669726e-01 -1.37885675e-01
  -8.73505473e-02 -1.18953489e-01 -1.30241454e-01 -1.08639933e-01
   2.92318791e-01 -7.00501874e-02 -1.23967610e-01 -2.09999029e-02
   2.85483375e-02 -1.68637484e-02 -1.10242903e-01  6.45533130e-02
   3.18479419e-01 -9.03255865e-02 -7.05586448e-02  1.10086545e-01
  -5.77299371e-02 -6.04924820e-02 -4.64261882e-02  5.25044054e-02
  -1.77549962e-02  3.77153791e-02 -2.39744224e-02  5.59166782e-02
  -7.34539479e-02 -1.87152326e-01  2.13428997e-02  4.12622355e-02
  -8.64668861e-02 -3.84601057e-02 -6.98347250e-03 -2.81018496e-01
  -1.34198949e-01 -1.73351556e-01  1.59351435e-02 -6.05575629e-02
  -2.74345487e-01  1.29830793e-01  2.29233094e-02  2.05687061e-01
   1.41332313e-01  4.92253155e-03  2.47178525e-01  2.62032658e-01]
 [ 8.84445980e-02 -5.90526313e-02 -4.94851731e-02  8.73257988e-04
  -1.32822633e-01  1.59138301e-03 -2.07547825e-02 -9.19155404e-02
  -6.75335005e-02 -1.24338105e-01  4.32550795e-02  1.24990329e-01
   5.55793904e-02  1.32290944e-01  1.18004613e-01  2.31448393e-02
   1.25864908e-01 -9.66720209e-02  1.43366426e-01  4.55493517e-02
   4.65773325e-03  3.28562669e-02  1.54339805e-01 -1.27589807e-01
  -5.27925207e-04 -1.64728522e-01  1.12601586e-01 -1.45761639e-01
   2.85908836e-03 -8.79963636e-02  6.83805346e-02 -1.78889245e-01
  -5.50471731e-02 -4.65680622e-02  1.01725735e-01 -1.35451972e-01
   1.85557395e-01  1.46032870e-01  2.75765378e-02  6.06594533e-02
  -1.18152983e-01  1.93510279e-02  4.37625013e-02  1.88031033e-01
   1.85999628e-02  6.67928681e-02  9.51152854e-03  4.58878130e-02
  -3.32393833e-02  1.43847674e-01 -9.88749713e-02  3.87129709e-02
  -9.64403450e-02  4.75910902e-02 -1.75575301e-01  7.75720365e-03
  -5.55507205e-02  4.22687419e-02  3.92504372e-02 -6.50035590e-03
   1.28175154e-01 -1.14581138e-01 -1.22127026e-01  1.29281655e-01
  -9.43194777e-02 -4.19415459e-02  4.95764688e-02 -1.30262226e-03
   5.43003678e-02  3.90625708e-02 -1.65130392e-01  2.15244219e-01
  -1.58619642e-01  5.01338094e-02 -1.78084522e-01  6.13428578e-02
   2.20838636e-02 -1.58426061e-01  7.28227943e-02 -9.56831202e-02
  -1.68856144e-01  2.01177433e-01  3.00134271e-02 -1.81831047e-01
  -3.99894007e-02 -3.39609943e-02 -1.26506910e-01 -1.65303171e-01
   1.04310550e-01 -4.58712084e-03 -2.75675356e-02  4.85469289e-02
  -4.51217256e-02 -1.25181288e-01  5.47726732e-03  7.29354024e-02
   1.42811224e-01 -8.89511481e-02 -2.58177876e-01 -3.25247948e-03
  -6.98906630e-02 -4.25364226e-02  1.07023232e-01  6.49569742e-03
   1.43636286e-01  6.59936219e-02  1.42816126e-01 -8.13113078e-02
   6.90391809e-02 -1.45651132e-01  4.51853126e-02  1.39567614e-01
  -9.36246812e-02  2.31372491e-02 -9.20938700e-02 -2.77121723e-01
  -2.91925091e-02 -1.91779673e-01  4.46881615e-02  5.76243438e-02
  -2.40171790e-01  9.85216498e-02  2.12335419e-02  6.43373728e-02
   1.15549475e-01 -7.78058693e-02  1.27243116e-01  1.65968254e-01]
 [ 7.25531997e-03 -2.29146294e-02  5.03628142e-02  9.20903310e-02
  -2.33625740e-01 -1.39745260e-02 -1.03709981e-01 -1.69607684e-01
  -1.39276728e-01 -9.47366282e-02 -7.78639223e-03 -8.96022543e-02
   1.59547552e-01  2.98206713e-02  1.43177230e-02  2.95778159e-02
   1.66480899e-01  1.20327972e-01  2.98324794e-01  5.57133779e-02
  -1.08337812e-02  1.09515302e-01  9.54305567e-03 -4.82923649e-02
   4.23557609e-02  3.51734124e-02 -2.74206921e-02 -2.18461692e-01
  -5.37783392e-02  1.06896246e-02  2.43596882e-02 -2.07325384e-01
  -1.72063217e-01 -1.04038641e-01  4.98328172e-02 -1.69907585e-01
   2.52203345e-02  1.37696415e-01  7.74836391e-02  6.09289110e-02
  -6.58997819e-02  1.56644121e-01  7.25500062e-02  1.48468882e-01
   6.56500235e-02  2.42832825e-01  2.66831927e-02  5.69789968e-02
  -8.37298185e-02 -3.21843848e-02  1.37755135e-02 -2.94744428e-02
   6.12976886e-02  7.64590427e-02  8.31708759e-02  1.22565530e-01
  -7.04817474e-02  1.21731862e-01 -5.54653965e-02  1.93336233e-02
   2.05648914e-01  5.41090705e-02  6.08992316e-02  2.54497319e-01
   6.35399073e-02  6.67661279e-02 -2.65898127e-02 -6.57149404e-02
   1.70158818e-01 -2.51540802e-02 -2.03633830e-01  1.84589773e-01
   3.87798878e-03 -4.50612828e-02 -5.86331002e-02  9.07338858e-02
   5.83113320e-02  1.77072044e-02 -5.32925688e-03  1.55308381e-01
  -1.70663197e-03  2.18512744e-01  2.42300615e-01  7.27648884e-02
  -5.34275174e-02 -2.34898161e-02  2.46713273e-02 -6.55013993e-02
   1.53567329e-01  7.66674243e-03 -1.45598957e-02  1.37627143e-02
  -5.48920147e-02 -1.88652605e-01 -7.01256096e-02 -3.77136730e-02
   1.33808747e-01 -1.30252624e-02 -1.90104812e-01 -1.07448973e-01
  -3.56287248e-02 -1.58432797e-02  1.47294626e-01  1.12777073e-02
   1.88916877e-01  8.71108174e-02  5.24282530e-02 -6.89591165e-04
  -2.45264964e-03 -1.28213257e-01  1.59896001e-01  1.19187787e-01
   4.93046865e-02 -6.95756972e-02 -8.57926235e-02 -1.01068355e-01
  -5.33072744e-03 -1.78768754e-01 -2.13029496e-02  2.54096724e-02
  -4.40359116e-01 -3.97898294e-02  8.48962888e-02  2.53017902e-01
   1.56778470e-01 -1.67514812e-02  2.30753645e-01 -2.46244483e-02]
 [ 1.71964839e-01 -1.75142884e-02  8.07981119e-02  1.68883711e-01
  -3.31328213e-01 -5.84361441e-02 -1.64301664e-01 -2.22935557e-01
  -3.34116727e-01 -1.88838705e-01 -6.93164468e-02  9.10253376e-02
   2.42367744e-01  4.62448820e-02  1.42541587e-01  2.15336367e-01
   3.38499904e-01  1.04868464e-01  2.72698879e-01  1.76844254e-01
   1.92170311e-03  5.54482527e-02  1.16786487e-01 -2.34113842e-01
   5.48619358e-03 -1.40813403e-02  1.09727919e-01 -7.37080351e-02
  -1.23710141e-01 -2.78927688e-03  2.03078650e-02 -4.26563799e-01
  -9.82370228e-02 -4.83954176e-02 -3.79932411e-02 -8.97632539e-02
  -5.43635115e-02  2.53258228e-01  7.56407231e-02  5.95015846e-02
  -4.69402187e-02  5.62885404e-02  6.65497687e-03  2.46213853e-01
   4.95270938e-02  3.56885701e-01 -1.99964672e-01  1.79776460e-01
  -1.26303986e-01  9.21136793e-03 -9.14259478e-02  5.00490069e-02
   1.26487255e-01  1.43835405e-02  3.20210122e-02  1.25402957e-01
  -1.10203259e-01  1.71854421e-01  6.90433681e-02 -1.58902891e-02
   3.08550596e-01 -6.70228899e-02  7.30351731e-02  1.99432388e-01
  -1.29881352e-01  1.19783487e-02 -3.50196399e-02 -6.86186105e-02
   4.54076901e-02  2.72090305e-02 -2.41147995e-01  2.43843615e-01
  -1.30907530e-02 -1.69698328e-01 -4.96440381e-02  2.25705430e-02
  -1.80843682e-03 -6.74122721e-02  1.66057229e-01  8.33674669e-02
  -2.99664903e-02  2.96359658e-01  2.55127490e-01 -3.25358324e-02
  -4.96574491e-02 -2.77984925e-02 -3.61816995e-02 -1.50685027e-01
   2.91596651e-01 -6.52910816e-03 -1.05516873e-01 -5.65255480e-03
   2.16847453e-02 -5.78304045e-02 -4.66279984e-02 -6.57486692e-02
   1.61631376e-01 -3.44929509e-02 -1.68921649e-01  1.23936208e-02
   4.67538647e-02 -9.94480774e-02  7.55171850e-02  5.28209284e-02
   6.28124401e-02  2.63352185e-01  6.91584796e-02 -1.03038080e-01
  -1.75556988e-02 -4.45810929e-02  2.40903884e-01  3.13644111e-02
   9.04394612e-02  2.49095596e-02 -7.22060874e-02 -1.33187652e-01
  -2.08602682e-01 -2.29847580e-01  1.23167321e-01  6.00088984e-02
  -4.90124285e-01  1.33830994e-01  7.72756860e-02  1.92930371e-01
   2.09091634e-01 -5.05895428e-02  3.24831396e-01  2.71985400e-02]
 [ 2.09040791e-01  1.92107297e-02  5.50121143e-02  3.33113611e-01
  -3.51245135e-01 -1.16596468e-01 -1.39233574e-01 -1.68503150e-01
  -2.80588180e-01  1.63085992e-03  1.25737293e-02 -2.67069116e-02
   2.65576482e-01  1.60669506e-01  2.74731547e-01  1.40050501e-01
   2.49978498e-01  1.72761045e-02  2.73839474e-01  2.94886321e-01
   1.63128169e-03  4.88484092e-02 -1.77037480e-04 -1.39277041e-01
  -3.09640747e-02  1.00853555e-02  3.14759947e-02  1.16460130e-01
  -1.82834312e-01 -1.28779292e-01  2.91225757e-03 -2.76917487e-01
   1.11537494e-01 -2.47729674e-01  3.49077061e-02  1.38120577e-02
   8.10871348e-02  1.23717807e-01  1.45781875e-01  1.82543229e-02
  -9.22893919e-03  1.09180860e-01 -6.98249862e-02  1.92212969e-01
  -3.47987823e-02  1.67077258e-01 -9.38435644e-02  1.40732870e-01
  -1.92879990e-01  1.83407024e-01 -9.67624709e-02 -2.09308080e-02
   4.31805737e-02  2.33764231e-01 -5.75295929e-03  8.32966343e-02
  -3.05728074e-02  2.80601442e-01  5.10412566e-02 -6.27024174e-02
   4.07752693e-01  6.22125827e-02  9.66681913e-02  1.96407333e-01
  -1.21208854e-01  7.01193064e-02  5.00280708e-02 -1.70529276e-01
  -6.37071133e-02  5.74754626e-02 -2.04511449e-01  8.19217563e-02
   1.42836913e-01 -1.72763973e-01 -1.85821354e-01 -1.57199770e-01
   4.58215401e-02 -1.47404224e-01  2.82257825e-01  1.26166865e-01
   2.72083636e-02  2.84985602e-01  2.83149898e-01 -9.47835594e-02
   5.26001037e-04 -3.59003767e-02  9.06253606e-02 -2.55032122e-01
   2.52828658e-01 -3.12844552e-02 -4.59309369e-02  1.04629435e-01
  -4.60518412e-02 -1.49243161e-01 -5.06443307e-02  2.92849187e-02
   1.83946893e-01  6.28558919e-02 -1.60337090e-02 -7.92101771e-03
  -3.69069800e-02 -1.58467308e-01  1.42790556e-01 -4.87833992e-02
   6.66059330e-02 -7.33725876e-02  5.25774285e-02  3.14746946e-02
  -6.37815520e-02 -8.34449232e-02  3.20780873e-01  1.06015101e-01
   1.95850015e-01 -2.07113456e-02 -1.04140103e-01  1.53669581e-01
  -2.57464379e-01 -3.02730143e-01  3.64299826e-02  8.50947574e-02
  -1.82846263e-01  9.07467827e-02  8.30631405e-02  1.86795980e-01
   2.44071603e-01 -1.79094784e-02  3.03830445e-01  1.70035407e-01]
 [ 2.45464861e-01  6.83770776e-02 -1.41460121e-01  2.36834750e-01
   1.44301862e-01  4.06264290e-02 -7.63369203e-02 -1.64874971e-01
  -8.93268660e-02 -6.42235875e-02 -4.01209816e-02  1.41026616e-01
  -2.67713219e-01  1.52073205e-01  6.47622570e-02 -3.81367863e-03
   3.03313155e-02  6.88230321e-02  1.48733228e-01  3.23768646e-01
   2.10889205e-01  3.25470380e-02  2.47101858e-01  1.46497600e-03
   2.16541179e-02  2.35043280e-03  9.31942016e-02  5.35511114e-02
   1.95001662e-01  1.43244341e-01  2.15508550e-01  1.34651884e-02
   7.64519423e-02 -3.42526212e-02  7.41835311e-02  1.52873769e-01
   2.43010044e-01 -8.05975273e-02  2.31122464e-01  5.86281298e-03
   5.94290160e-03 -1.08107984e-01 -2.80501693e-01  3.84547003e-02
   2.66436562e-02 -5.24881482e-02  7.64178811e-03  2.39991114e-01
  -1.08972751e-01 -1.99777871e-01  2.28464648e-01  1.45716891e-01
  -1.50045857e-01  2.41696328e-01  4.90808301e-02  7.35814795e-02
   1.89386100e-01 -6.92594796e-02  9.07750502e-02 -3.12836915e-02
   2.57707298e-01 -6.44957125e-02 -1.00654244e-01  1.03500910e-01
  -1.65358465e-02  1.66513428e-01 -8.21430162e-02 -1.67264044e-02
   2.33885273e-01 -3.95592265e-02 -1.76071659e-01  1.55507354e-03
   1.46647602e-01  9.38532203e-02 -2.55342513e-01 -3.49702127e-02
  -1.15997665e-01 -1.33207366e-01  6.80924207e-02 -1.40420720e-01
  -1.14677809e-02  1.50914490e-02 -2.18016468e-02 -1.08608782e-01
  -7.90280327e-02  1.57357112e-01  2.05781966e-01 -2.84552962e-01
  -9.68744978e-02 -1.02818564e-01 -5.50214946e-02  8.20257664e-02
  -5.18045537e-02 -1.84147999e-01 -6.63125142e-02 -1.21157043e-01
  -2.00911462e-01  2.85748448e-02  2.45469296e-03 -2.08971173e-01
  -3.39681916e-02  2.56020762e-03  5.68626523e-02  1.51807135e-02
  -1.84657931e-01 -2.17515498e-01 -1.65656880e-01  2.20392346e-02
   3.17429185e-01 -1.44200549e-01  1.63946167e-01  6.45043552e-02
   1.34375751e-01  1.27374670e-02 -3.38191376e-03  6.34393543e-02
  -1.88756078e-01 -2.51943827e-01  1.30136147e-01  1.06459856e-02
  -8.21701363e-02 -5.64093180e-02 -6.18166365e-02 -1.65022016e-01
  -4.56921523e-03  2.53773361e-01  1.74875259e-01 -3.22544694e-01]
 [ 1.95770279e-01  3.98337618e-02 -1.91807210e-01  2.15850726e-01
   7.32695460e-02 -2.49007978e-02 -1.74870327e-01 -1.88549966e-01
  -2.71062613e-01  1.04612812e-01 -2.11751372e-01 -2.15383261e-01
  -2.79576648e-02  1.73609957e-01  1.19648717e-01 -6.18949160e-02
   3.91152740e-01  1.24685608e-01  1.31255314e-01  4.62571532e-01
   1.21505864e-01  2.83650100e-01  2.95052856e-01 -3.16518813e-01
  -1.41451256e-02  1.41160581e-02  1.43224552e-01  5.53237312e-02
   1.05457000e-01  9.45442393e-02 -1.72575206e-01 -2.41944090e-01
  -8.77080485e-02 -1.11688212e-01 -9.80584770e-02 -1.13922320e-02
  -6.76300973e-02  4.01311785e-01  2.41384849e-01 -7.36572891e-02
   4.05496880e-02 -4.41324487e-02 -6.61873445e-02  2.92326152e-01
  -8.18156824e-03  2.26327479e-02 -2.43452579e-01  1.84561312e-01
  -3.77419442e-02 -2.00961828e-01  1.59705341e-01 -9.56072807e-02
  -2.44355902e-01  1.40222847e-01 -3.92210215e-01  1.10619880e-01
   1.70773536e-01  5.85904606e-02 -4.32036296e-02 -3.32672186e-02
   4.76188213e-01 -1.18502773e-01  1.41110986e-01  2.24947184e-01
   1.56835318e-01  2.23935083e-01 -8.37538615e-02 -1.98912710e-01
   1.86323360e-01 -2.00198516e-01 -1.27704129e-01  4.07506675e-01
  -2.85372734e-01  4.08687554e-02 -1.36534005e-01  9.88485292e-02
  -1.20902620e-01 -1.55612871e-01 -9.65784863e-02 -4.92492225e-03
  -2.46336199e-02  2.79919147e-01  1.24610707e-01 -3.58854495e-02
  -1.70389324e-01 -1.61992460e-01  2.37881229e-03 -4.82634231e-02
   8.18975866e-02 -9.86154843e-03 -9.86300260e-02  1.81256533e-01
  -1.74543299e-02 -1.41681626e-01 -1.77495405e-01  1.91155612e-01
  -3.52721326e-02 -6.30939528e-02 -4.25206006e-01 -2.19536245e-01
  -1.00959897e-01 -9.88344429e-04  4.24992368e-02 -2.34937266e-01
   6.76744208e-02 -9.46307462e-03 -1.52079031e-01 -3.18204388e-02
   1.56720802e-01 -2.88960695e-01  1.19358785e-02  9.95632932e-02
  -1.53394133e-01 -3.58874761e-02 -1.12442598e-01 -3.81370217e-01
   7.95764383e-03 -4.19681728e-01  2.00945050e-01  4.54737479e-03
  -1.33039542e-02 -6.58271462e-02 -9.89829749e-02 -6.38005212e-02
   3.22854012e-01  1.48704275e-01  1.42078340e-01 -5.06261028e-02]
 [-1.63371880e-02  5.27981557e-02 -8.84007663e-02  1.94810107e-01
  -2.01091692e-01 -5.20334616e-02 -1.54835001e-01 -1.18252121e-01
  -1.39361456e-01  1.51849702e-01 -1.09109722e-01 -1.91069558e-01
   3.18293065e-01  2.10125163e-01  1.70358142e-03  2.75376558e-01
   2.68566422e-02  2.50463244e-02 -1.63405254e-01  2.92579889e-01
   1.81855429e-02  9.73783731e-02  3.30188602e-01 -6.52583614e-02
   2.87339598e-01  4.47784439e-02 -8.84884447e-02  1.52461395e-01
  -9.37243849e-02  3.00830305e-02 -5.80751300e-02 -8.28511044e-02
   8.80517215e-02 -2.08432868e-01  1.37088120e-01  5.79534210e-02
   1.75870080e-02  1.70668811e-01  9.02935043e-02 -1.73386976e-01
  -8.43431801e-03  2.84023374e-01  1.38838962e-01  1.48586750e-01
  -9.44802910e-02  2.21279219e-01 -2.16427267e-01  1.07929386e-01
  -1.53369457e-01  4.95364629e-02  1.68324828e-01  4.74408790e-02
  -2.24027544e-01  2.24917084e-02 -2.53066540e-01  6.72519440e-03
  -1.50724918e-01  2.39423096e-01 -2.17244998e-01 -8.76784548e-02
   2.87399262e-01 -2.77091446e-03  2.22893566e-01  1.82957008e-01
   1.05053216e-01 -1.86235849e-02  1.86150253e-01 -3.81339937e-01
  -1.25832915e-01 -1.50414109e-01 -2.58480042e-01  2.50934929e-01
  -2.11468369e-01  5.60849272e-02  8.24362487e-02  2.72021919e-01
   1.74776483e-02 -1.61773250e-01 -3.67418900e-02  6.44671917e-02
   5.16855642e-02  1.19542398e-01  3.61251354e-01 -3.69071332e-03
  -1.45208344e-01 -9.76722762e-02 -1.78125665e-01  3.47407721e-02
   1.73333481e-01  1.04105948e-02 -8.10603946e-02  1.01212271e-01
  -8.11549053e-02 -9.95354205e-02 -6.24752343e-02  1.26612052e-01
   2.42371619e-01  5.96358106e-02 -2.10755005e-01  2.01667920e-02
  -5.69675900e-02 -5.84726185e-02  1.79248750e-01 -2.20897183e-01
   4.08727378e-01  3.07150900e-01 -7.58613870e-02 -3.62586156e-02
  -1.35006055e-01 -1.37152672e-01  2.20811233e-01  1.39911339e-01
  -6.44000992e-02 -1.06389403e-01  1.49303079e-02 -2.02946067e-01
  -8.05962607e-02 -1.80678412e-01 -6.26893863e-02  9.95146111e-02
  -6.84582517e-02  1.50834173e-01  2.72885650e-01  2.69066483e-01
   2.47108921e-01  1.22958235e-01  2.02255279e-01  1.52175173e-01]
 [-2.33319383e-02  1.39186531e-02 -1.14430517e-01  1.24329485e-01
  -2.96197772e-01 -2.04933360e-01 -1.39113322e-01  2.92805471e-02
  -7.40348101e-02 -2.08830237e-02 -2.21499398e-01 -9.29828361e-02
   3.85055691e-01  1.12366237e-01  4.14481126e-02  2.03840524e-01
   1.57758594e-01 -7.97778741e-03 -1.67611018e-01  1.53297186e-01
  -5.10908142e-02 -1.97649989e-02  1.27546221e-01 -1.47188738e-01
   2.63820946e-01 -1.16699167e-01 -1.79281225e-03  1.46260336e-01
  -1.34591863e-01 -7.90143982e-02 -3.25513929e-02 -8.79961774e-02
   1.81740746e-01 -1.82632074e-01  2.49230877e-01 -2.17330772e-02
  -3.00862332e-04  2.54214823e-01  1.16748810e-01 -1.87407210e-01
  -5.93593158e-03  3.65419477e-01  5.04017472e-02  1.40001044e-01
  -9.95700248e-03  2.86446214e-01 -1.90089226e-01 -3.41781005e-02
  -1.07368842e-01  2.61434972e-01 -1.63169149e-02  9.80887562e-02
  -1.07306249e-01 -4.86459956e-02 -1.16959170e-01  8.49193037e-02
  -1.01903468e-01  2.74880528e-01 -1.92600653e-01  4.48299944e-02
   1.17246896e-01 -8.38543754e-03  1.62149563e-01  2.22221211e-01
  -3.09077790e-03 -3.49958031e-03  4.57484126e-02 -2.97912240e-01
  -3.26729327e-01 -1.51736230e-01 -2.23844901e-01  2.71027327e-01
  -1.81866542e-01 -6.44550845e-02  6.10244423e-02  1.52273282e-01
  -1.53215893e-03 -1.66096359e-01  4.34130942e-03  1.23241387e-01
   1.93090979e-02  1.99018866e-01  3.13901275e-01  7.06696184e-03
  -1.82055563e-01 -2.10609362e-02 -3.03140372e-01 -7.77087063e-02
   3.56333405e-01  1.12798817e-01 -1.37012720e-01  1.87131539e-01
  -8.93372819e-02 -2.01003790e-01 -1.03307791e-01  9.92876887e-02
   2.95644015e-01 -1.59927811e-02 -2.58923858e-01 -2.08808836e-02
  -9.62867439e-02  5.05242795e-02  1.28965423e-01 -2.06541151e-01
   4.18770999e-01  1.46420345e-01  1.02390200e-01  2.16203704e-02
  -2.89694741e-02 -1.54128477e-01  2.07340077e-01  1.08074397e-01
   1.22152776e-01 -9.33756083e-02 -7.08470717e-02 -1.66284725e-01
  -1.07799791e-01 -1.62926018e-01 -1.02359608e-01  2.73144599e-02
   1.18065551e-02  1.54440776e-01  2.22549126e-01  4.08992201e-01
   2.04951242e-01  3.54634523e-02  2.60729909e-01  2.95867234e-01]
 [ 1.05818875e-01  3.26072685e-02 -4.05753590e-03  1.19052358e-01
  -3.15919250e-01 -4.22774069e-02 -7.54914284e-02 -3.59711237e-02
  -2.90638715e-01 -1.55110851e-01  4.17145975e-02  1.53306738e-01
   1.66759059e-01  1.30856022e-01  5.94083332e-02  1.64053306e-01
   1.47323236e-01 -1.27115637e-01  1.35080479e-02  1.03172667e-01
   2.48504765e-02  2.26594578e-03  1.70234397e-01 -1.79638281e-01
  -8.64685420e-03 -1.10667527e-01  1.51468083e-01  4.94490452e-02
   8.10464546e-02 -1.67800322e-01  1.29785538e-01 -2.38590047e-01
   3.40497606e-02 -1.92969501e-01 -1.63177121e-03 -1.17341973e-01
   1.58743709e-01  1.20728254e-01  1.77364618e-01 -1.81458548e-01
  -3.94725055e-02  1.48377165e-01 -5.33184782e-02  2.32889608e-01
   3.32001597e-02  6.91993386e-02 -1.23716801e-01  2.56057829e-01
   1.85146439e-03  2.50906706e-01 -5.03376164e-02  1.60321414e-01
  -1.08888529e-01  8.50301385e-02 -1.62617207e-01  2.04208754e-02
  -5.49503341e-02  1.14647709e-01  6.92734122e-02  2.26445273e-02
   4.44976926e-01 -3.90624255e-02  2.02108696e-01  1.91953614e-01
  -4.49984297e-02 -1.20430812e-01  1.88331604e-02 -2.52934635e-01
  -2.54168600e-01 -2.88777370e-02 -5.31119062e-03  1.60537347e-01
  -8.98545831e-02 -3.43621857e-02 -3.94927785e-02  4.35207188e-02
  -1.15252301e-01 -7.68325180e-02  1.71215639e-01 -6.97751418e-02
  -1.07270852e-01  1.87600911e-01  1.17741987e-01  6.48801774e-02
  -1.61470026e-01  3.30229476e-02 -4.87021916e-02 -5.14730811e-02
   1.70902923e-01  6.34633303e-02 -1.66837603e-01  3.22058201e-02
   2.61587054e-02 -1.33625433e-01 -1.64572187e-02  2.10900038e-01
   3.31576496e-01 -7.17159361e-02 -2.29332000e-01  1.60094816e-02
  -7.44749755e-02 -4.39373814e-02  2.45420355e-02 -3.56788076e-02
   1.64525449e-01  1.13348164e-01  1.35496840e-01  7.65105560e-02
   1.75642774e-01 -4.90036123e-02  7.59632662e-02  1.05461642e-01
  -8.70638713e-02 -5.27538396e-02 -1.37519106e-01 -1.67290524e-01
  -1.45161167e-01 -1.82010293e-01  1.82683751e-01 -5.50097004e-02
  -2.11946651e-01  1.68237850e-01  6.55994564e-02  1.61046088e-01
   1.91243887e-01 -4.31876928e-02  2.37461850e-01  3.06298494e-01]
 [ 1.14804380e-01 -7.66736865e-02 -6.54494911e-02  1.90499038e-01
  -1.93746880e-01  1.70723006e-01 -1.00820400e-01 -2.41734371e-01
  -3.66862267e-01 -2.62636930e-01  1.92252845e-02  4.94351499e-02
   2.56571651e-01  1.40880644e-01  1.34670302e-01  8.76158401e-02
   2.48322412e-01 -1.14913031e-01  1.36947051e-01  1.88262224e-01
   1.17141284e-01  1.25675142e-01  2.46909574e-01 -1.74873069e-01
  -9.40970480e-02 -9.19680595e-02  2.07981214e-01  7.93999992e-03
   3.05680428e-02  5.99213243e-02  8.47969856e-03 -2.70874441e-01
  -3.94231230e-02 -2.50621349e-01 -3.30108628e-02 -5.97543828e-02
